734 128
1558 0.08024194 -0.059330806 0.09667148 -0.031126965 0.046778563 0.007937704 -0.11316647 -0.12000489 0.057885293 -0.013689764 -0.02559243 0.08091825 0.0073764683 0.08803868 -0.20989475 0.037371147 0.072963074 0.13436848 0.06889617 -0.009541348 -0.01175893 0.10107211 -0.035152312 -0.08688744 -0.010771366 0.20901996 0.12407746 -0.07117278 -0.09922675 0.12740119 -0.15297535 0.08212145 -0.07394591 -0.066105805 0.34673485 0.12235281 0.015665302 -0.17844355 0.0012491723 -0.008959266 -0.03984665 0.0689264 0.11263587 0.13858613 -0.03680934 0.22487855 0.008794766 -0.03720269 -0.062422052 0.03687999 -0.07444793 0.14125519 0.01762536 0.11462026 0.084826455 -0.023724688 -0.112832144 -0.053777035 -0.15059814 0.012002947 0.040374104 -0.06884766 -0.035045907 -0.12072529 -0.019835198 0.024577066 0.09481451 -0.12622209 -0.14086539 0.06859712 -0.11876216 0.034080695 -0.077722825 0.10707833 -0.02672107 -0.10117717 0.006634807 -0.074052244 -0.02793406 -0.1561337 0.0667866 -0.05928267 0.0983553 0.078230426 -0.123438895 -0.1445307 0.012035396 0.0632072 0.012693834 -0.101068035 0.08461727 0.08008188 -0.009095528 -0.024829825 -0.032449458 0.11263796 -0.0053003123 -0.15141355 0.077172644 0.07221967 0.073974654 -0.111435816 -0.0388308 0.052673724 0.0068106046 -0.058740497 -0.14274639 0.1228699 0.01568642 0.12778899 0.0713815 -0.05253782 -0.02121196 0.01924378 0.019262036 0.09192933 0.13025321 -0.16316098 -0.06379953 0.07067244 -0.1300743 -0.08215142 0.1551867 0.001884334 -0.091667145 -0.15214266 -0.13494109 -0.0423635
1 0.06868674 -0.051192686 0.10540783 -0.017428096 0.03979214 0.022570638 -0.11539097 -0.12842882 0.051000673 0.002504321 -0.030177025 0.08323497 0.012513603 0.06713187 -0.21760051 0.058179464 0.07449884 0.13007177 0.063220136 -0.0038650543 -0.020250687 0.09750479 -0.03074014 -0.100043125 -0.015821723 0.1938604 0.12086736 -0.04803624 -0.07615453 0.12878485 -0.13377476 0.0667639 -0.07695187 -0.07098433 0.34015658 0.14456646 0.0012783669 -0.17781961 -0.023744008 0.0011637191 -0.0471968 0.065787934 0.11103477 0.14085177 -0.044946637 0.22251518 -0.0015032568 -0.02248897 -0.077707164 0.048921496 -0.064037904 0.14144714 0.023057586 0.12443975 0.07821711 -0.025033114 -0.101446584 -0.057643298 -0.15022811 0.019693533 0.038565733 -0.060837645 -0.036466558 -0.1131099 -0.02602248 0.0013567603 0.0846316 -0.13904344 -0.14382133 0.05599037 -0.10361634 0.017479667 -0.07721322 0.103400275 -0.03154323 -0.10348578 0.016770067 -0.07256819 -0.02568682 -0.17140973 0.06339962 -0.056308378 0.07580217 0.07621587 -0.123205975 -0.15146779 0.01191614 0.0503092 0.012074604 -0.09112528 0.08810395 0.08722056 -0.012692726 -0.011110755 -0.044288684 0.08776743 -0.004044975 -0.16234973 0.07201368 0.040699318 0.06370284 -0.10404274 -0.029085685 0.04708645 0.008936238 -0.063499704 -0.14831924 0.11881446 0.01656561 0.14321601 0.07815707 -0.054726094 -0.014100266 -0.0049074413 0.03662922 0.07250392 0.13193399 -0.173355 -0.0851987 0.05782439 -0.13775305 -0.07209891 0.13793106 0.0075036082 -0.085610986 -0.16188551 -0.11957615 -0.060790535
132 0.0790362 -0.037364013 0.087290324 0.0130495 0.041923486 0.011609734 -0.11864506 -0.108954065 0.046407703 0.008742442 -0.031416856 0.053032782 0.039159656 0.07839926 -0.20431195 0.038814835 0.075527765 0.11218025 0.07023003 -0.009113296 -0.0025054878 0.077099085 -0.031659193 -0.08450001 -0.02092961 0.17125684 0.098143764 -0.03111212 -0.06710478 0.13819472 -0.11734591 0.048324715 -0.07356656 -0.06847053 0.31732327 0.10635112 -0.006117685 -0.1610207 -0.04335415 0.0040863845 -0.052541792 0.06462462 0.11593376 0.13202032 -0.06716571 0.23341027 -0.009166287 -0.023694515 -0.091480225 0.021031855 -0.06357747 0.15650079 0.03758541 0.12726195 0.08985484 -0.025526095 -0.123535655 -0.049917273 -0.18094407 0.01648623 0.031594116 -0.08173947 -0.013948059 -0.115889795 -0.048378393 -0.006543438 0.07650116 -0.15845397 -0.12744136 0.05923393 -0.113370016 0.021794423 -0.07909544 0.10728071 -0.016536085 -0.09036388 0.030009601 -0.050643258 -0.051597554 -0.19224107 0.06826697 -0.06294685 0.08340998 0.08663935 -0.12650438 -0.17266837 0.0036681283 0.04953871 0.015141777 -0.07899897 0.080498524 0.08874817 0.015021828 -0.0043775397 -0.07224335 0.08498402 -0.021850334 -0.18647437 0.07842845 0.0385907 0.0574857 -0.124369346 -0.014031922 0.045536734 -0.014515056 -0.077719875 -0.17197448 0.12354721 0.0239175 0.13615133 0.08851091 -0.04152 -0.016369613 -0.01005643 0.016355887 0.09595575 0.12072219 -0.16294177 -0.07004321 0.07602431 -0.17080858 -0.05395735 0.14231524 0.018493244 -0.08256985 -0.16031945 -0.11171957 -0.088620804
7 0.074459486 -0.046831768 0.09302502 0.009599108 0.031499177 0.01928585 -0.113887094 -0.12114522 0.049229182 0.029653763 -0.02526905 0.060283154 0.035922788 0.07038802 -0.21386148 0.048132353 0.0810019 0.11899823 0.08120608 -0.015292991 -0.010641539 0.09156402 -0.022171851 -0.09796557 -0.019456925 0.16585605 0.09952939 -0.04233492 -0.07966959 0.13744017 -0.14005746 0.053162467 -0.06477943 -0.06966703 0.31320176 0.10834964 0.0015209231 -0.15816835 -0.040325 0.00467071 -0.0482984 0.053571004 0.11639013 0.14278406 -0.056596104 0.22949028 -0.0077191126 -0.036020424 -0.09088321 0.023902528 -0.060321033 0.15045142 0.0324051 0.13311526 0.07975018 -0.021826418 -0.12443899 -0.046410616 -0.16042952 0.015714249 0.031219717 -0.0849916 -0.016271072 -0.12155455 -0.03342869 -0.0049019987 0.08564948 -0.1663838 -0.1334734 0.04859122 -0.11632838 0.018367497 -0.0721134 0.100675605 -0.036730453 -0.08774417 0.012811086 -0.055040978 -0.038654245 -0.19017625 0.07293815 -0.057672262 0.10130868 0.08743345 -0.12825274 -0.16935295 0.007817355 0.055669166 0.022798555 -0.07809426 0.07759161 0.07868108 0.009322296 -0.025236784 -0.07553076 0.10150349 -0.018394059 -0.1770095 0.075640984 0.036897555 0.05856079 -0.11717835 -0.025229381 0.03232285 -0.00493877 -0.062589906 -0.16081889 0.13067628 0.023848228 0.13935266 0.10032095 -0.032012597 -0.020478202 -0.015423699 0.026807263 0.08260364 0.122485496 -0.1582542 -0.065941505 0.07451202 -0.14920513 -0.056183424 0.13645653 0.014634217 -0.094783 -0.14983396 -0.1111342 -0.07890389
288 0.061943863 -0.04141921 0.104576565 0.015947372 0.034825534 0.022171462 -0.11570877 -0.09932215 0.045249864 0.024006026 -0.036986522 0.06387836 0.029730858 0.083577976 -0.2089511 0.06270455 0.091354124 0.122091696 0.07363368 -0.014206992 -0.021320434 0.08235426 -0.011492648 -0.07884999 -0.029308459 0.16232395 0.11022428 -0.04723288 -0.05772938 0.15078026 -0.12953368 0.048477422 -0.05787024 -0.07275376 0.30827156 0.12560076 0.009974284 -0.15824802 -0.037313525 0.02444725 -0.05737671 0.05613836 0.13375698 0.1368538 -0.048836865 0.22969234 -0.0068739783 -0.03133197 -0.09197003 0.034473486 -0.06066592 0.14674948 0.03512739 0.1336231 0.071701296 -0.021596935 -0.11492541 -0.060647245 -0.15512706 0.03056852 0.046889275 -0.108760454 -0.029844187 -0.11991867 -0.039450042 0.022314774 0.08836215 -0.17538464 -0.15464553 0.05388954 -0.115878634 0.020675205 -0.07603102 0.10195923 -0.022588208 -0.09834391 0.020171244 -0.037532132 -0.026185451 -0.19730802 0.0679898 -0.059879433 0.093169294 0.07706173 -0.114813775 -0.17017919 0.013161347 0.056190476 0.009357148 -0.08237519 0.08524385 0.07866958 0.0080804825 -0.027933665 -0.0847303 0.09259594 -0.01847479 -0.17932162 0.07983601 0.024876418 0.05574599 -0.11983533 -0.016914919 0.028293572 -0.018118238 -0.06863399 -0.17632157 0.12386305 0.0037701007 0.13571382 0.09408237 -0.027062463 -0.024977894 -0.012157355 0.017450828 0.081949376 0.122102305 -0.15729189 -0.072781965 0.07616033 -0.14994165 -0.06508452 0.13678023 0.009709538 -0.09545515 -0.16096003 -0.0852253 -0.08173043
6113 0.07162921 -0.049110617 0.09095971 -0.017523434 0.04187575 0.016704716 -0.112985 -0.12467065 0.038933042 0.0041119615 -0.03976403 0.07146373 0.023945875 0.069873236 -0.21212572 0.04874741 0.07495627 0.12789121 0.085507944 -0.019230697 -0.014345297 0.09610276 -0.028863562 -0.091789 -0.017740274 0.20650752 0.10853889 -0.061245315 -0.095736735 0.14960824 -0.14964628 0.068835184 -0.06382775 -0.081362166 0.32643056 0.12622681 0.007457034 -0.17670321 -0.016225377 -0.0075709233 -0.0482774 0.07287231 0.11389053 0.14005129 -0.043550823 0.22728461 -0.0038580238 -0.03045886 -0.08614192 0.04097937 -0.061298486 0.14402889 0.026079256 0.12472085 0.08761766 -0.017326392 -0.11371602 -0.06318939 -0.15435472 0.010740719 0.018503586 -0.072251305 -0.025085894 -0.122266635 -0.027705204 0.0012027721 0.087641604 -0.14034303 -0.13453941 0.062291183 -0.11601806 0.037837222 -0.087205134 0.101065785 -0.027175153 -0.0954329 0.013145791 -0.06859239 -0.037618317 -0.17560674 0.06769567 -0.055684593 0.088562146 0.081829414 -0.12624256 -0.15979049 0.013412137 0.05095737 0.028390717 -0.09603395 0.07706059 0.081705414 -0.012450792 -0.020224208 -0.068600595 0.110788584 -0.002322155 -0.15489526 0.08124838 0.04885479 0.07036911 -0.104158506 -0.014804358 0.040531304 0.008854161 -0.056038067 -0.1533178 0.11648073 0.01307347 0.13654433 0.08944724 -0.05047951 -0.01462794 -0.018629272 0.027363803 0.08999753 0.13456368 -0.17002763 -0.08717987 0.045702778 -0.1450019 -0.07251958 0.12927043 0.004246064 -0.087151155 -0.14859796 -0.112167746 -0.063785
9475 0.07505607 -0.058503676 0.101526864 -0.0074463463 0.044044603 0.0058416137 -0.117457926 -0.12777717 0.05331107 0.0031201548 -0.026965091 0.06703345 0.02790523 0.07454861 -0.21773523 0.054343987 0.08050438 0.11495933 0.06900773 -0.020134782 -0.016353456 0.09908664 -0.022795618 -0.09888034 0.009337974 0.18407723 0.112365805 -0.05627437 -0.09122571 0.14180274 -0.14962229 0.065830186 -0.06668467 -0.064695105 0.32986012 0.1240178 0.015115367 -0.16533057 -0.023495957 -0.010755781 -0.037710045 0.06576608 0.101462126 0.14008602 -0.061434705 0.22617772 0.004324016 -0.020760266 -0.085036226 0.036488015 -0.055486757 0.14284346 0.027611053 0.12219916 0.07954167 -0.014997875 -0.12823536 -0.04690078 -0.17167307 0.001051019 0.037440967 -0.07424909 -0.019767161 -0.114479184 -0.033742495 0.018050535 0.09300643 -0.1377156 -0.14187942 0.054158434 -0.106568746 0.025052024 -0.06844334 0.10262034 -0.037674386 -0.0950698 0.022663748 -0.06155614 -0.030577786 -0.17334516 0.06432466 -0.049921036 0.091844365 0.08272282 -0.12573618 -0.1595339 0.010217516 0.054166965 0.018457197 -0.07991526 0.08306841 0.08576379 -0.009022735 -0.022026457 -0.05357428 0.111119114 0.00015052223 -0.16573417 0.066239536 0.05660368 0.05983824 -0.10635349 -0.013751119 0.03347952 0.006926641 -0.061039343 -0.15527235 0.114352316 0.016758638 0.13751182 0.09485446 -0.029352084 -0.025511563 -0.015671125 0.035923794 0.09108346 0.11985373 -0.16625962 -0.06637191 0.08104871 -0.13920416 -0.073457666 0.14288014 0.0050342735 -0.08831935 -0.1435955 -0.11286903 -0.060582455
9144 0.07167078 -0.053011496 0.11444473 -0.01140614 0.04535373 0.008062274 -0.10234707 -0.123553276 0.059406485 0.0038727603 -0.03892927 0.067253985 0.013791104 0.07753948 -0.21481249 0.04175961 0.09172309 0.13004899 0.082043454 -0.003444438 -0.007506672 0.11984709 -0.038455494 -0.102420636 -0.003445611 0.20786366 0.11589414 -0.049570475 -0.10322554 0.1331411 -0.1559949 0.07232049 -0.08282242 -0.06758877 0.32817104 0.1283 0.013127475 -0.16928901 -0.010664339 -0.003604099 -0.052570917 0.04340974 0.10590354 0.13745515 -0.046562485 0.21524477 0.0006859342 -0.024935324 -0.06266837 0.036891352 -0.06610066 0.1515297 0.026352879 0.11564503 0.079955325 -0.0066373614 -0.12898521 -0.06311962 -0.16530721 0.0022824716 0.027933957 -0.06832651 -0.021735152 -0.10842509 -0.026600158 0.023510765 0.08976953 -0.13375917 -0.13290821 0.06888047 -0.11528022 0.040399503 -0.07496253 0.098811 -0.02135048 -0.10451362 0.013086292 -0.06830679 -0.035517965 -0.16669382 0.06671949 -0.05718931 0.09959285 0.087047815 -0.11661988 -0.16297504 0.0067597576 0.06835008 0.016695954 -0.07945638 0.06379133 0.074617706 -0.01614297 -0.024208374 -0.052640453 0.11515703 -0.0038293116 -0.15669584 0.07766656 0.056510203 0.059211154 -0.09788375 -0.012741385 0.048893858 0.009597111 -0.04805122 -0.15760356 0.109937415 0.017377777 0.12897156 0.08402656 -0.05229198 -0.025422437 0.0066185477 0.029145446 0.104921885 0.12696797 -0.16242893 -0.059938252 0.06331991 -0.12444903 -0.08492719 0.13383597 -0.011743966 -0.07825393 -0.1391394 -0.1209721 -0.057919417
287 0.07335476 -0.04205207 0.10361159 0.015753685 0.040607754 0.019489488 -0.11373189 -0.12677681 0.058363345 0.012842002 -0.04078346 0.06213238 0.028694076 0.074358776 -0.19910426 0.0546505 0.077548005 0.12065686 0.07721396 -0.01887657 -0.01897099 0.1000856 -0.021866431 -0.09724261 -0.018740335 0.17561704 0.09919868 -0.05687879 -0.07989824 0.121454485 -0.12929045 0.0559788 -0.06006676 -0.062695324 0.3128536 0.12697488 0.01228235 -0.15515569 -0.038421664 0.0161847 -0.052317213 0.055839367 0.114431955 0.13089406 -0.052610934 0.21930999 -0.0078603225 -0.031760234 -0.07772778 0.03197387 -0.0648104 0.14034383 0.028252183 0.117963485 0.08606257 -0.021570688 -0.111586854 -0.053263415 -0.16647136 0.025697542 0.0343738 -0.07865339 -0.024656374 -0.119977675 -0.025747277 0.0016390777 0.07593522 -0.16002043 -0.13753219 0.059623472 -0.10964684 0.015723608 -0.08355879 0.10114732 -0.031829294 -0.09173517 0.02995793 -0.047327135 -0.031557836 -0.18260069 0.063959904 -0.05442952 0.08820338 0.06949797 -0.121734075 -0.17593537 0.016456287 0.059094857 0.011188622 -0.07944072 0.07838981 0.07685494 -0.0004152919 -0.014679922 -0.076432005 0.08836892 -0.012234449 -0.18851857 0.08462854 0.02676281 0.04366317 -0.12733488 -0.022369742 0.034715183 -0.018005298 -0.07451263 -0.17141344 0.112944044 0.014446467 0.15129003 0.09454431 -0.049607072 -0.023262542 -0.0073035085 0.020823723 0.088812694 0.12706462 -0.15984902 -0.06967251 0.075600095 -0.15165396 -0.059145898 0.15257406 0.007476582 -0.092412174 -0.16337143 -0.11406954 -0.08763981
49 0.085342474 -0.045130327 0.11039461 4.0764684e-05 0.04948285 0.016943714 -0.11529263 -0.12392117 0.045870412 0.026040623 -0.026640372 0.06992583 0.023107642 0.077895604 -0.21571739 0.046991013 0.084062174 0.13170764 0.07091887 0.0063478583 -0.016600436 0.098710194 -0.013331498 -0.092945926 -0.028601434 0.17708753 0.113505565 -0.04701422 -0.07125257 0.14962101 -0.12543806 0.05762991 -0.07065562 -0.063660644 0.32007638 0.13771738 8.736681e-07 -0.16356175 -0.035230573 0.0061565517 -0.06398513 0.06374601 0.11703855 0.1462807 -0.05643843 0.23090334 -0.0046014423 -0.025083702 -0.0922845 0.034291238 -0.062454466 0.13842139 0.03661712 0.13697895 0.089497626 -0.024061147 -0.115374096 -0.056680955 -0.142877 0.021737413 0.041157488 -0.077419065 -0.035032537 -0.12427887 -0.035753287 -0.0020946625 0.0902809 -0.16188826 -0.14144959 0.041770335 -0.10146479 0.02648679 -0.07617593 0.11318345 -0.03168959 -0.08977905 0.025307132 -0.047639273 -0.020285347 -0.1818272 0.077552415 -0.07105526 0.07818185 0.08302219 -0.121159956 -0.1538604 0.01598129 0.049802132 0.014605798 -0.08070415 0.09389859 0.07265011 0.0020470081 -0.012999116 -0.07262581 0.089692034 -0.015139754 -0.176325 0.076396696 0.03742135 0.05607441 -0.11980325 -0.018797735 0.044938788 -0.00978426 -0.080961235 -0.15549421 0.123330645 0.019987414 0.13165544 0.08569716 -0.035933368 -0.015060553 -0.012887405 0.028649556 0.08300716 0.12277335 -0.15688848 -0.080671765 0.05928747 -0.13892157 -0.056717176 0.14436637 0.0013269148 -0.0909693 -0.14818403 -0.117183246 -0.067028
4 0.07045453 -0.041635532 0.10440039 -0.00103401 0.034978278 0.010305308 -0.10256898 -0.1325259 0.056498546 0.02212087 -0.038295742 0.048478108 0.03638382 0.07833094 -0.22526017 0.049668904 0.07171072 0.12898514 0.08310525 -0.016558368 -0.0057704337 0.09929002 -0.02469748 -0.09896519 -0.020476969 0.18289317 0.1059251 -0.04917086 -0.07584688 0.13108452 -0.1557254 0.056770686 -0.083113946 -0.067813195 0.316198 0.12310502 0.00032714684 -0.17139281 -0.04541103 0.0060248985 -0.058960464 0.05869622 0.12228144 0.14536124 -0.04441398 0.22099003 -0.015314461 -0.021715336 -0.088048905 0.026589824 -0.06720452 0.1521759 0.031948872 0.12766379 0.086794004 -0.010907373 -0.12048963 -0.04971675 -0.16484605 0.006342959 0.025064193 -0.06955564 -0.025316764 -0.12052769 -0.05046963 0.005641212 0.07921649 -0.15379955 -0.13673235 0.045943458 -0.11607201 0.023161152 -0.076734535 0.097291335 -0.02341673 -0.0891514 0.012496906 -0.04418698 -0.028682096 -0.19018318 0.06358996 -0.054712314 0.08830776 0.0853047 -0.119964115 -0.1635794 0.020757768 0.062327385 0.023379618 -0.07562635 0.085403554 0.07233247 0.0057727457 -0.012858645 -0.06525085 0.09137522 -0.010093625 -0.17247686 0.06871306 0.027301574 0.041154567 -0.10949042 -0.024681516 0.04507029 -0.0055698724 -0.06162674 -0.15444133 0.106463715 0.016977848 0.13872458 0.087004974 -0.041831292 -0.015625147 -0.014188456 0.01906342 0.08753508 0.11152552 -0.15630375 -0.06632739 0.072854936 -0.13332845 -0.053100605 0.1322457 -0.0043919343 -0.09078878 -0.14169823 -0.10182507 -0.07722488
9288 0.066252716 -0.061603736 0.09239638 -0.024762712 0.037184913 0.016777387 -0.10739368 -0.11061965 0.063744426 0.0019962003 -0.03663365 0.07314425 0.015669664 0.06888739 -0.20108348 0.031415675 0.0872322 0.11655703 0.07206063 -0.012803702 -0.007065258 0.10672114 -0.03046095 -0.1008097 -0.0073212846 0.19367312 0.1094856 -0.054903463 -0.09745254 0.12213136 -0.14474934 0.08260561 -0.07923766 -0.075604215 0.33313316 0.12689467 0.0130333835 -0.17284802 -0.0035250261 -0.0043035722 -0.049287956 0.045264415 0.11310472 0.13977735 -0.048204865 0.22621077 -0.0018113429 -0.035208527 -0.0661478 0.044111397 -0.0771499 0.1508412 0.036004484 0.11818357 0.09094553 -0.028665423 -0.10836546 -0.06110826 -0.17038177 0.015457052 0.034656003 -0.066727124 -0.013819507 -0.12145289 -0.027362762 0.0063883835 0.090298355 -0.14734486 -0.13644001 0.07465954 -0.12579174 0.03570568 -0.07408563 0.09090467 -0.041299198 -0.10180373 0.005975868 -0.058012903 -0.040906727 -0.1677149 0.06240457 -0.062058378 0.112233855 0.08755789 -0.108337395 -0.16063486 0.0087637985 0.05594318 0.018002193 -0.081346385 0.07954513 0.07482158 -0.013230763 -0.019888194 -0.047735073 0.11130495 -0.010389322 -0.16055255 0.07256431 0.056757785 0.06526591 -0.10552616 -0.03316138 0.05246988 0.013130564 -0.05736168 -0.15718037 0.11684803 0.0071532563 0.1331471 0.08694662 -0.050141115 -0.016984573 0.006895061 0.021653267 0.08285689 0.14210062 -0.14793311 -0.07007835 0.061639618 -0.13319257 -0.07888127 0.13881525 0.00036450665 -0.08270195 -0.14085676 -0.1236787 -0.0662147
16 0.08451433 -0.037373696 0.091707334 0.02410012 0.04041436 0.020624673 -0.12657978 -0.124476515 0.054354437 0.025206346 -0.0395904 0.05186016 0.039621897 0.08075277 -0.21390273 0.057785753 0.088174544 0.13044503 0.08575768 -0.008771225 -0.015654378 0.08184576 -0.014014508 -0.096886404 -0.022492351 0.16869566 0.11413321 -0.036754243 -0.07346333 0.15939015 -0.14527614 0.04907193 -0.05785336 -0.065791145 0.29350278 0.10103638 3.0937103e-05 -0.16020678 -0.05871627 0.012529347 -0.06752893 0.061845444 0.12619276 0.13115127 -0.054967973 0.23663986 -0.019542428 -0.026032439 -0.08881806 0.03421102 -0.05592199 0.1423819 0.035651706 0.1289663 0.07463712 -0.032780796 -0.124303564 -0.049984287 -0.16544023 0.027140794 0.031062124 -0.084296346 -0.020944526 -0.11787943 -0.033612784 -0.0076640504 0.079061724 -0.16436206 -0.12941869 0.054949198 -0.11265764 0.010971158 -0.07897575 0.08914074 -0.026730105 -0.08257205 0.023862807 -0.03704305 -0.029506525 -0.18835095 0.062360324 -0.062180933 0.086226895 0.08191869 -0.12557803 -0.16206144 0.004935097 0.049972557 0.008177697 -0.076861195 0.07553244 0.08068867 0.009885289 -0.0219674 -0.08044044 0.07613742 -0.013842541 -0.18630423 0.074958935 0.022301912 0.052163705 -0.11763718 -0.0152528575 0.04162297 -0.020790704 -0.07862057 -0.15817825 0.115245566 0.02590002 0.13496967 0.08949255 -0.025075737 -0.012592182 -0.014972093 0.021723783 0.08099594 0.11679287 -0.14889799 -0.06823831 0.074376166 -0.14570731 -0.051481344 0.14375347 0.020167725 -0.088590704 -0.16181953 -0.0861318 -0.087010056
2306 0.08003936 -0.060802836 0.112850025 0.010237269 0.033366505 0.013238724 -0.11810455 -0.12704201 0.055671327 0.026885722 -0.035294496 0.05641919 0.03306434 0.082474105 -0.22413577 0.05411559 0.08768914 0.13342336 0.079383664 -0.0044619897 -0.00490728 0.09068813 -0.013898441 -0.09262268 -0.01922805 0.1649085 0.1101457 -0.056661658 -0.08071642 0.1406947 -0.14477946 0.070641175 -0.07378005 -0.06266209 0.32685333 0.107484356 0.003184473 -0.1654271 -0.03461481 0.016752398 -0.04516767 0.048482493 0.11731101 0.12710871 -0.04349983 0.21894243 -0.0042065764 -0.032526534 -0.079573266 0.044648938 -0.07256876 0.13646957 0.035884555 0.12893721 0.08540516 -0.023371736 -0.102770925 -0.047139768 -0.17262137 0.026020104 0.03523652 -0.07740798 -0.023123223 -0.11981832 -0.036712658 0.019608852 0.077862084 -0.15427093 -0.13444372 0.05880105 -0.110310726 0.024813218 -0.07327512 0.09156342 -0.029382192 -0.10002352 0.013270441 -0.04633706 -0.05172961 -0.18170616 0.07524757 -0.0700281 0.08696953 0.07904756 -0.12207041 -0.16145535 0.006028978 0.056195807 0.0074831657 -0.077991575 0.077603474 0.08059313 0.0076378533 -0.01840226 -0.07217853 0.10270426 -0.022227837 -0.18306273 0.07377954 0.024308885 0.035194185 -0.119092785 -0.027959628 0.035959885 -0.008353448 -0.06801472 -0.15749289 0.111461595 0.012008313 0.13290517 0.09596239 -0.021138709 -0.015010456 -0.0077538253 0.02119212 0.088291675 0.13029228 -0.1476057 -0.05890748 0.07017675 -0.13372014 -0.06741692 0.13248087 0.009085602 -0.09107959 -0.14617917 -0.11153612 -0.07175517
7636 0.07508391 -0.06042704 0.11657832 -0.007441325 0.045818906 -0.00013999073 -0.11608924 -0.1419956 0.07166423 0.009037052 -0.04350625 0.05845484 0.029020527 0.09718082 -0.21617423 0.052600957 0.08031229 0.12838162 0.086548954 -0.0136271715 -0.0073022353 0.106905326 -0.030465133 -0.09863147 -0.006927848 0.18369344 0.11377445 -0.051018465 -0.086000204 0.13768913 -0.15951745 0.06654516 -0.07191343 -0.061855853 0.2994153 0.098719575 0.006171584 -0.15635565 -0.019544153 6.719516e-05 -0.054179978 0.040258754 0.11137671 0.14592539 -0.0661514 0.21866249 -0.0047392943 -0.03239255 -0.07138886 0.043258537 -0.07463884 0.14407656 0.01672862 0.11490216 0.09045848 -0.023693766 -0.12854348 -0.05464593 -0.1742964 0.018537154 0.034650266 -0.066119604 -0.015098032 -0.122011095 -0.031819325 0.014424067 0.090649396 -0.1417787 -0.13081597 0.062464956 -0.114698514 0.024306547 -0.07795801 0.099102005 -0.028738575 -0.09403922 0.01844264 -0.04230519 -0.037870597 -0.17532308 0.06579115 -0.056224074 0.09788256 0.08337265 -0.11259799 -0.15824166 0.013805554 0.06376876 0.022256698 -0.08030386 0.07544557 0.076963626 0.004139443 -0.021958038 -0.06546028 0.11126177 -0.004504324 -0.16893166 0.07650672 0.047910057 0.054822493 -0.10481814 -0.023726054 0.029667072 0.009428604 -0.06170884 -0.1537567 0.1015616 0.023438256 0.12786274 0.081929356 -0.027179152 -0.013128646 -0.004041125 0.023395756 0.09738269 0.12251475 -0.1572386 -0.06390272 0.07239417 -0.13568333 -0.059973784 0.14380479 -0.0007151229 -0.07979712 -0.14921714 -0.121539965 -0.06661956
6359 0.07318744 -0.061100956 0.10482047 -0.021107987 0.03769445 0.0036483612 -0.120312475 -0.105139144 0.038339034 0.006857339 -0.02563502 0.062021147 0.016990371 0.071402885 -0.20681274 0.03797137 0.07281817 0.13348578 0.07043438 -0.0043963096 -0.0067770593 0.08240938 -0.03073821 -0.0942593 -0.011985094 0.18181296 0.11772199 -0.048052 -0.08609726 0.12294306 -0.14379798 0.063482694 -0.08195781 -0.06530847 0.337474 0.13192827 -0.005456277 -0.17587544 -0.026104363 -0.0042879316 -0.047493562 0.05722493 0.10784855 0.14435633 -0.051120155 0.21252537 0.0064348704 -0.023474567 -0.07899827 0.036477968 -0.06650991 0.15547024 0.032637313 0.124451086 0.08136385 -0.015117112 -0.13481173 -0.05425385 -0.16704892 0.010952148 0.034564976 -0.08020423 -0.03154792 -0.12488528 -0.042424545 0.010513321 0.0888781 -0.14102228 -0.13642094 0.060312178 -0.1185184 0.03505107 -0.07373489 0.09374547 -0.027807359 -0.09424049 0.02130991 -0.0647623 -0.038484305 -0.18936636 0.058613643 -0.060577765 0.08067512 0.07417698 -0.120231815 -0.16420116 0.003219446 0.05691712 0.008596398 -0.08211308 0.07178285 0.07866082 0.0005333599 -0.009681594 -0.051138986 0.097351395 -0.012096462 -0.1641781 0.079038545 0.050701473 0.06666837 -0.11776869 -0.025244564 0.055830326 -0.0027383424 -0.055057004 -0.16419098 0.13319296 0.014116134 0.13805121 0.083997436 -0.049575925 -0.008889787 -0.0019930778 0.019712921 0.104849435 0.13183425 -0.157951 -0.0639465 0.064258546 -0.13910666 -0.07329571 0.13764524 0.00503207 -0.09147939 -0.15351465 -0.12749928 -0.06531517
7600 0.06634701 -0.060836628 0.11621773 -0.0004581189 0.040125642 0.0047219456 -0.0950262 -0.12995474 0.044556826 0.015389892 -0.039478388 0.051433176 0.03337264 0.08006097 -0.20453262 0.04312908 0.080233805 0.12705956 0.080768935 -0.01973718 -0.01331568 0.112959936 -0.026713528 -0.09846653 -0.021463508 0.1831206 0.10765968 -0.04796497 -0.10096811 0.14371915 -0.15131381 0.06852244 -0.081271626 -0.0644332 0.30230173 0.09823446 -0.0014630022 -0.14939968 -0.03373622 0.008558533 -0.052852236 0.04140439 0.10181827 0.14254202 -0.033492405 0.21170166 -0.011155026 -0.0282189 -0.078123055 0.030670777 -0.08064724 0.15864769 0.03489763 0.120056294 0.08740734 -0.011602396 -0.10939647 -0.054481965 -0.18141522 0.004295842 0.037295282 -0.08104054 -0.01908491 -0.13082659 -0.04345741 0.014194999 0.06686443 -0.14310393 -0.1259427 0.062056188 -0.116435945 0.03443891 -0.08213362 0.09212487 -0.025726877 -0.08454484 0.010045482 -0.05725151 -0.053113025 -0.18878335 0.06230771 -0.06417832 0.10456431 0.08267843 -0.11508522 -0.17496485 0.014924389 0.058813777 0.02042189 -0.08219393 0.063877955 0.076877825 0.0038198922 -0.025523731 -0.07680987 0.11265936 -0.011115577 -0.16351289 0.08832613 0.03706597 0.0484184 -0.11604464 -0.019362789 0.046090424 -0.0012570977 -0.056406677 -0.17559572 0.107714646 0.00837707 0.1401078 0.08648643 -0.031057015 -0.01913443 -0.01636819 0.020689871 0.09686246 0.13138789 -0.15152368 -0.057509914 0.061362848 -0.14107177 -0.057060976 0.1342697 -0.011719788 -0.076547496 -0.14288172 -0.12006816 -0.08577822
68 0.0764548 -0.05656156 0.11636844 0.008825652 0.0398167 0.017879542 -0.11947879 -0.12030505 0.04894501 0.01791753 -0.036759984 0.06816207 0.027965505 0.08480694 -0.20589717 0.049578734 0.08784142 0.13088311 0.08186056 -0.0075488007 -0.0066854167 0.0908098 -0.023810018 -0.09857498 -0.022245934 0.1778871 0.10404611 -0.04560806 -0.08525462 0.13343574 -0.14561711 0.06765733 -0.084528215 -0.06971358 0.316699 0.1093716 0.007791381 -0.16588585 -0.03698603 0.007055569 -0.0517024 0.061718676 0.11066509 0.13661721 -0.044494413 0.21098706 -0.0042406996 -0.032759614 -0.081907086 0.037741836 -0.06358354 0.14334917 0.03369146 0.13078126 0.08184689 -0.015758486 -0.11344832 -0.04734803 -0.17126499 0.014035133 0.026174579 -0.07846411 -0.017014505 -0.10528153 -0.04682147 0.0015955439 0.06506779 -0.15490225 -0.1347665 0.0610832 -0.10923717 0.02255926 -0.08184163 0.09610115 -0.018882874 -0.088067666 0.017722173 -0.05785113 -0.033223428 -0.17633481 0.073213406 -0.05960882 0.097054705 0.085563526 -0.11417742 -0.16723059 0.004155719 0.06433816 0.022081153 -0.093849584 0.07978724 0.08856413 0.00070861325 -0.022118252 -0.07366284 0.097602576 -0.0048728813 -0.17966206 0.070920564 0.03714143 0.05384955 -0.111729175 -0.024238406 0.032731388 0.0022271217 -0.071632676 -0.1748992 0.111943185 0.005284626 0.14232643 0.0823251 -0.0374725 -0.013768876 -0.003230196 0.014986914 0.090242 0.13098237 -0.14884906 -0.0535698 0.06362121 -0.15364318 -0.069016576 0.13102405 -0.0014639515 -0.0856561 -0.14547954 -0.11010944 -0.07184821
9503 0.061601456 -0.057274744 0.11879004 -0.017670501 0.03346277 0.003916072 -0.10566952 -0.13316992 0.06263164 0.016547253 -0.028902322 0.053075895 0.029654678 0.06591004 -0.20073985 0.041847248 0.08726227 0.12996207 0.07962651 -0.027033756 -0.01262554 0.10553667 -0.0317925 -0.10670906 -0.0016870055 0.17973664 0.09387121 -0.042286377 -0.093652405 0.120960936 -0.14605115 0.07562534 -0.082779706 -0.06971634 0.3189911 0.12303902 0.0042368374 -0.17932841 -0.021297788 -0.005249468 -0.035939403 0.04462223 0.10042828 0.13918245 -0.040168673 0.21817559 -0.0027729212 -0.010332466 -0.07214833 0.04832322 -0.068889014 0.15449706 0.01745846 0.118617184 0.07589018 -0.0077633704 -0.123450354 -0.052787397 -0.16936676 0.0102961995 0.03941232 -0.07702399 -0.019193897 -0.13061531 -0.029363148 0.016184315 0.089779854 -0.13812461 -0.13628583 0.06743022 -0.11446051 0.024319675 -0.07366769 0.091282226 -0.034389578 -0.10033429 0.016637057 -0.05322098 -0.033059593 -0.17895018 0.063295595 -0.06422764 0.109668426 0.07431454 -0.10947086 -0.17421909 0.010925587 0.07168627 0.021359827 -0.07371434 0.070561275 0.06867001 0.0014751306 -0.023044147 -0.06699694 0.110070445 -0.009943857 -0.16557907 0.08559358 0.055970643 0.0581213 -0.10036942 -0.015292273 0.04058889 0.00458776 -0.0569058 -0.16812138 0.102794275 0.011539497 0.13219304 0.093260586 -0.048080556 -0.016916879 -0.012301961 0.030932615 0.10215486 0.13405533 -0.15951483 -0.059199184 0.062038664 -0.14036153 -0.067024454 0.13952647 -0.010080708 -0.08636866 -0.13338251 -0.13127054 -0.07012947
130 0.07575979 -0.036418915 0.10558282 0.024172515 0.037472714 0.018974695 -0.11794147 -0.1211109 0.04812629 0.030821683 -0.03635787 0.0606522 0.030235562 0.077764474 -0.21789196 0.05308431 0.08512499 0.124885604 0.087927654 -0.00696152 -0.024429092 0.08519221 -0.019312574 -0.093478836 -0.020142347 0.18647939 0.09922483 -0.046641663 -0.07597722 0.1636925 -0.15019445 0.058357403 -0.05616035 -0.060887292 0.30686384 0.09995679 0.0037592694 -0.14636204 -0.05749371 0.008381454 -0.064613216 0.060981918 0.109760545 0.13033193 -0.05947764 0.22504406 -0.0053998213 -0.022502953 -0.08241505 0.020101806 -0.06544017 0.14062558 0.03766197 0.12390937 0.090269975 -0.02736204 -0.11449461 -0.053774513 -0.1623974 0.025374137 0.035404224 -0.080945335 -0.018342566 -0.114711136 -0.032681707 -0.010875189 0.07315894 -0.17236657 -0.13045108 0.05621532 -0.115998365 0.00868609 -0.07471192 0.10913435 -0.028273253 -0.08280113 0.021768624 -0.04974411 -0.03462116 -0.18114318 0.068095475 -0.05511247 0.086632356 0.08717861 -0.119553395 -0.16844143 0.011648494 0.05287678 0.021101857 -0.08362266 0.08597861 0.083210714 0.0057799183 -0.026051322 -0.07910089 0.09843858 -0.01577925 -0.19172539 0.07319944 0.033519544 0.048029087 -0.11611449 -0.0014937293 0.03659561 -0.012317114 -0.07382879 -0.15547799 0.10185656 0.022290468 0.13484986 0.09450982 -0.03193454 -0.015767118 -0.0111966785 0.03428859 0.083605446 0.11631824 -0.15948892 -0.07266233 0.07466383 -0.15067534 -0.044181023 0.13685971 0.011948875 -0.10330476 -0.14663625 -0.08973732 -0.08084842
274 0.07648263 -0.045502827 0.103935145 0.009412487 0.040406078 0.014925807 -0.117344484 -0.124046415 0.05889643 0.012407167 -0.042013515 0.062439572 0.036555946 0.08620575 -0.23185603 0.057893243 0.084029436 0.1365857 0.07808782 -0.012078558 -0.008565892 0.090683796 -0.02323195 -0.108195595 -0.009087203 0.19369371 0.11374893 -0.05321823 -0.0785783 0.15326548 -0.15229097 0.06454263 -0.06446166 -0.054635834 0.31968454 0.122854516 0.011012723 -0.15621856 -0.0448429 0.008506619 -0.046631612 0.06638233 0.10896062 0.13271773 -0.05476073 0.21172437 -0.015397766 -0.024397444 -0.0782612 0.029963952 -0.06367731 0.15036768 0.024818271 0.11262228 0.07609119 -0.028380252 -0.112991095 -0.057106487 -0.162792 0.016060257 0.025923677 -0.07408104 -0.024811143 -0.10751901 -0.03016493 0.00034834468 0.0858021 -0.15064935 -0.13876294 0.048549715 -0.10142164 0.01630513 -0.07911889 0.105000444 -0.027810305 -0.089286454 0.02245479 -0.05005996 -0.040521722 -0.17648402 0.06519558 -0.060298685 0.0837363 0.08594682 -0.12705937 -0.16233203 0.019703295 0.050546132 0.02013242 -0.0780273 0.08051631 0.07102315 -0.0029040645 -0.0082718255 -0.059834417 0.08124345 -0.01062679 -0.16929063 0.06795145 0.020943891 0.04407744 -0.10222045 -0.022342762 0.031786837 -0.012462274 -0.06656827 -0.1654893 0.11854631 0.016771736 0.1425506 0.08354958 -0.034551095 -0.018175013 -0.0018223806 0.01938073 0.08748081 0.12322148 -0.1575056 -0.06687951 0.062944576 -0.1427447 -0.059798103 0.14357932 0.017503973 -0.08974 -0.14508606 -0.106442 -0.07419598
293 0.0653039 -0.04575259 0.10181335 0.012813267 0.052881837 0.0022721577 -0.107819825 -0.11693783 0.04600633 0.026250552 -0.04196351 0.057989843 0.0335534 0.07112357 -0.19861646 0.044105567 0.0915577 0.12423261 0.083334744 -0.008474401 -0.010314796 0.08445107 -0.024599642 -0.093486026 -0.00931416 0.1661906 0.09677954 -0.043755997 -0.083405726 0.12951748 -0.13936874 0.057393245 -0.077457346 -0.068513036 0.31447443 0.09762519 -0.0041858177 -0.16661163 -0.05473111 0.0073021855 -0.053904448 0.04827622 0.108994626 0.1436574 -0.05980231 0.21668892 -0.01609888 -0.02444194 -0.078445375 0.022809973 -0.06579565 0.15475868 0.034588106 0.13024428 0.08493413 -0.024264624 -0.12659025 -0.052083705 -0.17814966 0.009265602 0.03441618 -0.098948754 -0.011416649 -0.12197753 -0.041290075 -0.0003067645 0.070580125 -0.15999874 -0.13893914 0.06476028 -0.107053615 0.023063885 -0.07724587 0.1014198 -0.018384537 -0.08879112 0.022368133 -0.043979328 -0.05150564 -0.19262142 0.080368996 -0.07243481 0.09156322 0.075810194 -0.13038392 -0.17599215 0.0057344437 0.05783741 0.008090083 -0.07978534 0.06680271 0.087982126 0.004334022 -0.017453497 -0.07887352 0.1090149 -0.013626497 -0.18493971 0.07546161 0.032702707 0.054770455 -0.116269946 -0.015388955 0.03260017 -0.003884223 -0.06862356 -0.16011022 0.11066762 0.021225959 0.1385928 0.09072962 -0.02594754 -0.016333468 -0.013266599 0.02006473 0.09330294 0.12426901 -0.14861059 -0.06172451 0.07420832 -0.15013827 -0.050928596 0.1310855 0.00926617 -0.08010208 -0.14592779 -0.108285815 -0.07544671
67 0.07935904 -0.042603325 0.08421456 0.004108595 0.036603566 0.012067146 -0.112294205 -0.12291417 0.05334361 0.009951622 -0.035983525 0.06531319 0.027297433 0.07837015 -0.20855176 0.04477204 0.0785121 0.12033375 0.075588614 -0.013846348 -0.0146511365 0.09178808 -0.019454002 -0.09414214 -0.008742577 0.17093088 0.11037985 -0.04784399 -0.07746146 0.13487858 -0.13203046 0.054321334 -0.059310835 -0.06470812 0.3089043 0.10668353 0.010357816 -0.15887374 -0.035135172 0.008479765 -0.050352488 0.06433885 0.1252232 0.14876446 -0.05892915 0.23171073 -0.011214858 -0.034514274 -0.08466867 0.029117256 -0.056046754 0.14830294 0.024630994 0.13004144 0.080575265 -0.025255004 -0.11884527 -0.04616883 -0.16362043 0.0147202 0.042699397 -0.07200207 -0.021434607 -0.11498918 -0.029339569 -0.0055451924 0.09448283 -0.16759685 -0.13604206 0.051430356 -0.114819184 0.024076954 -0.08205342 0.11250908 -0.03896403 -0.0955564 0.019210314 -0.044215027 -0.03623539 -0.18680857 0.064003125 -0.05724185 0.09035274 0.08704151 -0.12821376 -0.17219117 0.012349558 0.049242932 0.013530823 -0.07413267 0.08064754 0.07796541 -0.0018150255 -0.008638115 -0.067630164 0.09771583 -0.016679293 -0.17475322 0.07877766 0.037802596 0.053221554 -0.124652684 -0.020852616 0.042819556 -0.015176428 -0.07529063 -0.15675032 0.12056854 0.023790251 0.13941976 0.08765175 -0.036483973 -0.015834054 -0.014860586 0.024563657 0.093572624 0.11964923 -0.16316476 -0.075964905 0.06885174 -0.14345041 -0.053457614 0.15404668 0.024476174 -0.080119535 -0.15107194 -0.11036604 -0.07946947
6155 0.072953165 -0.07112114 0.12848626 0.00028165785 0.04075853 0.0076766266 -0.12256568 -0.14179432 0.05658277 0.00045334472 -0.038068805 0.061602212 0.033458192 0.07780596 -0.22599243 0.044598453 0.0853927 0.13696368 0.07619893 -0.025482967 -0.006985954 0.105472505 -0.017496102 -0.11150228 -0.01273732 0.16983487 0.107448936 -0.058957893 -0.1061723 0.13264604 -0.14617059 0.07030405 -0.08399855 -0.06083417 0.31146702 0.12261098 -0.0010129141 -0.15911974 -0.021044476 0.003578357 -0.03633561 0.049947686 0.10518826 0.13059999 -0.032835886 0.20586455 0.0010706095 -0.027000848 -0.074409395 0.039938115 -0.07130378 0.15546818 0.03403416 0.112061046 0.09010337 -0.013565083 -0.117734216 -0.042228006 -0.17168492 0.015282696 0.038569033 -0.06949904 -0.024157546 -0.11628741 -0.044603717 0.01363662 0.07979069 -0.14449912 -0.14187035 0.07123167 -0.107816085 0.02928326 -0.08429535 0.08881488 -0.02419576 -0.10351233 0.016102284 -0.055012435 -0.047832087 -0.18404622 0.06448466 -0.05470131 0.097604476 0.066561654 -0.12595116 -0.17206332 0.00998392 0.06264439 0.015347057 -0.08411187 0.07417358 0.08243304 -0.015696097 -0.026158571 -0.07061486 0.10710186 -0.0057962867 -0.15947765 0.07869032 0.029108625 0.054713257 -0.10561136 -0.028034568 0.0338291 -0.0039053762 -0.06612778 -0.17687885 0.11840292 0.0015746081 0.14499794 0.08559608 -0.035582196 -0.0068456787 -0.0016208102 0.020072514 0.09862214 0.12167301 -0.14758298 -0.04389834 0.06441634 -0.12595606 -0.066639826 0.13089687 0.0049129864 -0.07880126 -0.13240373 -0.11022009 -0.06705702
0 0.07096222 -0.043345172 0.10083103 0.0173697 0.049738456 0.01413623 -0.10284673 -0.12006953 0.04875732 0.022417905 -0.031586554 0.05092258 0.038632657 0.07061833 -0.20579319 0.05112533 0.0873259 0.1163531 0.087764874 -0.008950863 -0.011776244 0.08603771 -0.034310143 -0.100301124 -0.026578443 0.16918111 0.093939796 -0.030943448 -0.08667601 0.136895 -0.13706188 0.058609746 -0.07500729 -0.072826914 0.3134293 0.11182579 -0.00646777 -0.16379505 -0.04793708 0.008887906 -0.041259766 0.050621126 0.12740526 0.13665831 -0.052983325 0.22518967 -0.022166627 -0.028701473 -0.0836377 0.03467817 -0.067988105 0.14627446 0.041028712 0.12328655 0.07897101 -0.026813013 -0.12470239 -0.053931285 -0.18119414 0.015352702 0.035267197 -0.09131385 -0.020063642 -0.11195966 -0.038916077 -0.0038607535 0.06193556 -0.16023785 -0.12716068 0.057506856 -0.107424214 0.007892327 -0.07238639 0.09423777 -0.022470748 -0.09970274 0.025056483 -0.04468514 -0.04356573 -0.18894537 0.06536368 -0.072319314 0.09986917 0.074335866 -0.12582637 -0.18035235 -0.00026895484 0.055013265 0.01143429 -0.08471312 0.075584225 0.07978673 0.010285249 -0.009485032 -0.08400903 0.097203135 -0.0043712114 -0.18669511 0.072865866 0.032054886 0.05732746 -0.117268085 -0.021690723 0.039509032 -0.015777824 -0.076910086 -0.16780591 0.122922465 0.0180207 0.14463885 0.09469242 -0.034429796 -0.022306586 -0.007443661 0.020417238 0.08588498 0.11567237 -0.15511586 -0.06906604 0.076827504 -0.15476431 -0.054746795 0.13400206 0.012813767 -0.09435717 -0.14338437 -0.10601497 -0.08300875
281 0.07474192 -0.052887514 0.11062773 0.017779386 0.04122216 0.009838762 -0.11036941 -0.13876753 0.06655131 0.022092698 -0.02694881 0.05349072 0.03152364 0.08000071 -0.23189186 0.04745563 0.09085838 0.13732688 0.10049919 -0.0103196 -0.02266762 0.09656347 -0.021511167 -0.09679441 -0.008188706 0.17559783 0.10690511 -0.049816847 -0.086493574 0.1456177 -0.15138638 0.06972516 -0.063897096 -0.05955567 0.30392972 0.10804392 -0.005161583 -0.16731003 -0.034062687 0.013238403 -0.055177115 0.05084331 0.111356825 0.13795008 -0.041273825 0.22504862 -0.014056453 -0.023434337 -0.075094916 0.0281192 -0.069699444 0.1631578 0.032527097 0.12782794 0.08388945 -0.019158076 -0.1278747 -0.05500769 -0.16644555 0.011235336 0.028448975 -0.08038828 -0.01716342 -0.120851375 -0.03408144 0.0049521807 0.077715255 -0.1541921 -0.12890117 0.059939805 -0.1078457 0.010650955 -0.072973646 0.0933227 -0.038157925 -0.08338438 0.006944121 -0.03214557 -0.0322851 -0.1837364 0.068098865 -0.062150694 0.092356026 0.07467296 -0.119837336 -0.16417852 0.014952193 0.054659355 0.0061271493 -0.06706584 0.06676524 0.07006549 -0.0011286048 -0.0112028485 -0.078598306 0.087273024 -0.017713504 -0.17623699 0.076324254 0.022189945 0.049739175 -0.11333208 -0.022914717 0.034967866 -0.019951507 -0.06530316 -0.15860526 0.10835035 0.030462079 0.13546363 0.08858504 -0.028043365 -0.015997043 -0.011812607 0.022928134 0.082842804 0.12052908 -0.1483818 -0.069031924 0.07487031 -0.12945631 -0.059625123 0.12702432 0.0128817065 -0.08677023 -0.13635723 -0.10220373 -0.07721201
7543 0.07754599 -0.057307813 0.103607416 0.007659951 0.040502187 0.009342732 -0.11669986 -0.12650993 0.050007824 0.013461853 -0.02597635 0.057775978 0.034614332 0.0790781 -0.21624427 0.04782809 0.079105146 0.13100411 0.08683025 -0.013448923 -0.010286637 0.09633776 -0.026348693 -0.106292896 -0.020141182 0.17912745 0.11452653 -0.039787017 -0.09053521 0.14301367 -0.15420869 0.07444388 -0.07176134 -0.060286094 0.3148795 0.11865172 -0.003194885 -0.16571184 -0.038924213 0.009853708 -0.057581954 0.059179626 0.11556825 0.14523715 -0.055336032 0.2193129 -0.006377423 -0.029315734 -0.07152542 0.029818732 -0.07750844 0.1426372 0.029164497 0.12965123 0.08615918 -0.022772053 -0.12913811 -0.047203016 -0.1590849 0.022958424 0.029822871 -0.06902458 -0.013862947 -0.11888042 -0.03369297 -0.00020516527 0.08434113 -0.15914877 -0.13042937 0.049534168 -0.11558227 0.028263472 -0.07322149 0.095992506 -0.025666222 -0.089046106 0.01427512 -0.054946337 -0.03238935 -0.1728917 0.06264297 -0.05023053 0.095746376 0.080438964 -0.1143855 -0.16145653 0.006273825 0.05765665 0.012457526 -0.07641324 0.078629 0.074517645 0.0071889577 -0.016531065 -0.061661206 0.09082727 -0.014201459 -0.18340053 0.06753839 0.04612337 0.0539366 -0.115475625 -0.021031918 0.041026447 -0.0013548437 -0.07287905 -0.1630047 0.11036988 0.017775152 0.13894778 0.0859677 -0.041359726 -0.009396996 -0.013302538 0.017774029 0.088834986 0.13314117 -0.15828829 -0.06176025 0.06840242 -0.15046988 -0.05402538 0.13759361 0.0053245644 -0.091225006 -0.14585547 -0.10994182 -0.07661357
283 0.0703864 -0.038066383 0.10254728 0.009533728 0.040966094 0.02268854 -0.10677225 -0.13350107 0.05034212 0.01717595 -0.034509826 0.05655862 0.03232798 0.08061595 -0.20306705 0.043536454 0.08411569 0.12120467 0.08077854 -0.00961712 -0.008054863 0.08939329 -0.029853798 -0.086780295 -0.02775064 0.17001191 0.097768426 -0.043610644 -0.07224198 0.13546708 -0.13358854 0.055467915 -0.07529339 -0.06752984 0.3254104 0.11667441 -1.8168934e-05 -0.16450705 -0.038766768 0.015194226 -0.054472264 0.045356087 0.12209783 0.14080113 -0.046712685 0.23485634 -0.01614822 -0.027435116 -0.08038563 0.027120434 -0.06757184 0.13779016 0.03313101 0.11884826 0.08488835 -0.03770451 -0.11876711 -0.04804372 -0.16807352 0.02995924 0.035504207 -0.08328804 -0.019454638 -0.13189666 -0.04542706 -0.0004757414 0.07658933 -0.15127319 -0.1332543 0.062060785 -0.12039272 0.022349454 -0.0755069 0.09383277 -0.029403845 -0.09475357 0.020533573 -0.049158983 -0.03767477 -0.18838535 0.06714221 -0.068055674 0.09632974 0.076073855 -0.13241827 -0.15631993 0.009583242 0.05434275 0.02252865 -0.08939586 0.06635779 0.0782597 0.0066036186 -0.013627889 -0.074871965 0.0950005 -0.018588932 -0.1835773 0.08810255 0.03496616 0.05343617 -0.116786495 -0.016204273 0.041589346 -0.010617681 -0.0725261 -0.16208865 0.114977606 0.022769496 0.13943727 0.10302376 -0.04117276 -0.014980077 -0.009444499 0.023969088 0.082449906 0.12803 -0.16443029 -0.078017846 0.0676443 -0.15694979 -0.054960728 0.14234662 0.0003436937 -0.08551332 -0.15251498 -0.10795328 -0.07646411
2 0.08284258 -0.04390915 0.106027044 0.028467335 0.051206134 0.008085265 -0.11257848 -0.116244465 0.064597964 0.02857665 -0.036199868 0.05914179 0.042149156 0.08516607 -0.22327124 0.054244176 0.09774333 0.13341792 0.07410743 -0.0050099394 -0.016499408 0.0869874 -0.025724709 -0.09582428 -0.010742655 0.16289274 0.10796399 -0.04847507 -0.0809206 0.15207018 -0.14265352 0.057801656 -0.06220457 -0.054850094 0.31865332 0.10535176 0.0027486254 -0.15751591 -0.05056612 0.017738136 -0.059611853 0.06801953 0.113906726 0.12688762 -0.060984757 0.22585157 -0.0101525625 -0.01967514 -0.079987034 0.037365437 -0.059667967 0.14340027 0.03445811 0.13573003 0.07577361 -0.03328617 -0.12388209 -0.052613657 -0.1729344 0.021496268 0.022693858 -0.086831465 -0.008222251 -0.10710503 -0.023948988 -0.0011308338 0.06966919 -0.16110025 -0.13423753 0.04157766 -0.10051977 0.012013852 -0.07830099 0.104448356 -0.026791994 -0.08877744 0.014207288 -0.049750168 -0.0385598 -0.17960982 0.07229877 -0.05452172 0.08772895 0.08200478 -0.11843624 -0.15554662 0.014017996 0.05167885 0.016114397 -0.063423485 0.072036155 0.08388341 0.00829234 -0.019029062 -0.0806201 0.09799298 -0.02386765 -0.19727463 0.068396986 0.025382726 0.048573744 -0.11678371 -0.008510458 0.03224839 -0.008426694 -0.09169665 -0.16167626 0.1109973 0.022639398 0.13103326 0.104880676 -0.027379032 -0.01876368 -0.010103677 0.024628175 0.082788505 0.12134342 -0.15948014 -0.067858845 0.07251986 -0.1450832 -0.05661722 0.13297756 0.017806523 -0.09398404 -0.14781484 -0.09668757 -0.07292021
56 0.07164542 -0.035603732 0.10119616 -0.00068958895 0.041906532 0.010448566 -0.10038528 -0.1195675 0.06384209 0.01323695 -0.04104746 0.061825953 0.03971494 0.08023246 -0.22892858 0.057333067 0.09144556 0.14040624 0.076870084 -0.0022300654 -0.014392347 0.09315778 -0.03345536 -0.10547063 -0.024399161 0.17545876 0.10809767 -0.052927207 -0.08061299 0.14985988 -0.1467463 0.041856643 -0.06560977 -0.059595842 0.3060467 0.11005694 0.012987607 -0.16651992 -0.042635843 0.015990874 -0.050692063 0.05763079 0.11411666 0.12671092 -0.047368694 0.21972144 -0.01346233 -0.026470011 -0.082465954 0.033401955 -0.05312756 0.14373997 0.025606621 0.13185517 0.08387219 -0.02069783 -0.12132177 -0.048375 -0.16905545 0.0120268 0.03248637 -0.08003108 -0.011822103 -0.109435156 -0.03895242 -0.00812263 0.068907596 -0.16527945 -0.13939558 0.04169767 -0.11519425 0.0052699684 -0.08787871 0.09786403 -0.027737763 -0.086482234 0.021919189 -0.04714 -0.03704489 -0.18537879 0.06335611 -0.051668897 0.088718124 0.08822632 -0.11365571 -0.1651873 0.009674673 0.05683717 0.017715918 -0.08139 0.07786506 0.071653314 -0.0005648869 -0.023860464 -0.07880976 0.09940739 -0.0046642255 -0.18237081 0.07752423 0.031874392 0.05145978 -0.119548164 -0.014400799 0.035158988 -0.008580328 -0.06958621 -0.16598558 0.11835013 0.017927738 0.14493103 0.08268031 -0.03963376 -0.019057978 -0.00461408 0.037338965 0.079141 0.11935385 -0.15366524 -0.063077405 0.066831455 -0.15186332 -0.055351555 0.14107442 0.015088677 -0.10131429 -0.14708564 -0.09864399 -0.07353489
6168 0.072149634 -0.053127598 0.10047789 0.0027820051 0.03425375 0.0138402525 -0.108628795 -0.1297649 0.05831014 0.01676056 -0.034242384 0.05992957 0.032217674 0.08307241 -0.22361171 0.050544687 0.09189569 0.123693906 0.08359435 -0.0028514033 -0.018401556 0.095648415 -0.03742965 -0.09392942 -0.025781631 0.20540816 0.10873739 -0.056723244 -0.080503255 0.1599351 -0.1558678 0.07044848 -0.07031348 -0.06044393 0.31556016 0.11185621 0.004808373 -0.1603128 -0.038644426 0.008741813 -0.058821693 0.056853678 0.108826876 0.13556129 -0.049671367 0.22492275 -0.009938621 -0.026683487 -0.07312459 0.030186871 -0.058405988 0.13974157 0.035215206 0.123268306 0.08516474 -0.01607759 -0.11056581 -0.059835717 -0.15043958 0.019080643 0.035686612 -0.07191609 -0.020824175 -0.11039158 -0.027269226 0.0057156896 0.07426896 -0.15122445 -0.12992692 0.055158034 -0.11585113 0.033561822 -0.07286338 0.10185224 -0.026594086 -0.096925765 0.010166292 -0.04131257 -0.0341756 -0.17048968 0.059913617 -0.054756064 0.08954623 0.092354275 -0.10511508 -0.16032599 0.009254427 0.048715975 0.015850315 -0.08122137 0.084659845 0.07364198 0.005632007 -0.014636063 -0.06915128 0.08299541 -0.0058111697 -0.17584361 0.06890037 0.044942934 0.05740556 -0.11732126 -0.015759127 0.042992465 -0.0057116146 -0.05905166 -0.14995204 0.11131349 0.017891232 0.12789527 0.096096255 -0.034231372 -0.013915408 -0.0039281216 0.029166954 0.08450572 0.12257778 -0.15057127 -0.07472565 0.061597783 -0.15063207 -0.062151022 0.14399363 0.0077029523 -0.09387968 -0.1513419 -0.104822084 -0.07172731
7504 0.06768571 -0.050565887 0.11917372 0.007818382 0.04803033 0.0060964758 -0.12800708 -0.1526638 0.069623895 0.017031021 -0.030621173 0.048554566 0.037710525 0.078027494 -0.22043078 0.042729493 0.090795755 0.12834156 0.08714023 -0.017333502 -0.010328754 0.119590014 -0.02843609 -0.098720126 -0.00024066496 0.17867821 0.11131579 -0.04218031 -0.09444405 0.14348799 -0.14628986 0.06153153 -0.080639206 -0.052850794 0.2982783 0.125261 0.005185792 -0.16238041 -0.041048005 0.00018828962 -0.048687007 0.04474263 0.10159015 0.12779595 -0.050697412 0.21442999 -0.007437005 -0.013463321 -0.076807335 0.026112165 -0.061244935 0.1594984 0.024395417 0.11761637 0.08076549 -0.01501619 -0.13159648 -0.06296994 -0.18509972 -0.0053710593 0.030101445 -0.07183306 -0.024714613 -0.11942541 -0.043511506 0.0088320635 0.079239115 -0.15973584 -0.14015846 0.06184337 -0.09833918 0.01962598 -0.076974005 0.09446626 -0.02422044 -0.08522975 0.017745938 -0.039661393 -0.036618926 -0.197563 0.07623551 -0.06344121 0.09440845 0.075589955 -0.12708099 -0.17509915 0.010631799 0.062254537 0.02828561 -0.08607043 0.071723185 0.07430781 0.0038861989 -0.017539173 -0.07638785 0.10718104 -0.0035067056 -0.16503282 0.06476828 0.027055828 0.045137934 -0.1048686 -0.008727056 0.030908862 -0.0003228559 -0.07915924 -0.16809002 0.09336398 0.009337704 0.13961421 0.08575419 -0.031157667 -0.020844243 -0.010349204 0.031634625 0.08678819 0.096532166 -0.13821886 -0.05238354 0.07649292 -0.12970565 -0.054298073 0.12993105 -0.0018363221 -0.08835426 -0.14237037 -0.11662381 -0.08038356
3721 0.07639313 -0.051652912 0.11302122 0.0059488877 0.0484973 0.0078101666 -0.11222991 -0.1295651 0.070544794 0.010048577 -0.03397476 0.05776181 0.023202425 0.08034519 -0.21599793 0.04832127 0.09750195 0.13609008 0.091619626 -0.019913308 -0.016976763 0.1096076 -0.016417686 -0.107595265 -0.009968228 0.18999052 0.114633575 -0.05451092 -0.097807825 0.15131427 -0.15983029 0.07274262 -0.06803338 -0.06347685 0.31376377 0.122760385 0.0040000845 -0.15284437 -0.034011062 0.010690865 -0.046831064 0.04703148 0.11214759 0.13987747 -0.03203188 0.2234817 -0.010797251 -0.02727033 -0.07656735 0.038817815 -0.0725304 0.14201581 0.033483375 0.11540649 0.07654835 -0.018063437 -0.121295705 -0.06841108 -0.17154786 0.008772625 0.029537959 -0.07676437 -0.020596506 -0.11352369 -0.030085199 0.010723428 0.08458091 -0.14776479 -0.12634869 0.059299104 -0.106143534 0.026750961 -0.0774876 0.10123345 -0.024089856 -0.09387399 0.018310098 -0.03773976 -0.03457846 -0.17218411 0.059614357 -0.06472161 0.095500976 0.07732301 -0.1188094 -0.16705428 0.01129422 0.052473452 0.015675379 -0.0798787 0.06663952 0.061012127 0.0012165627 -0.024714034 -0.07302203 0.09117336 -0.00898955 -0.16950902 0.07200269 0.021539707 0.038741864 -0.10866019 -0.011222423 0.044218782 -0.008655252 -0.06464793 -0.16064863 0.10228049 0.0088536125 0.14205173 0.08771066 -0.031488627 -0.023519443 -0.010337159 0.019272894 0.08816716 0.114503436 -0.14144602 -0.056042176 0.067251936 -0.12885767 -0.059989646 0.13522291 0.0051413085 -0.08636202 -0.1387725 -0.11001289 -0.081078015
6278 0.062180568 -0.049014248 0.11400843 0.027831944 0.038662747 0.014095478 -0.099831864 -0.12642439 0.056663852 0.029673493 -0.026787208 0.030721309 0.04253929 0.06836651 -0.20431367 0.045338877 0.08778948 0.13618127 0.07787445 -0.007929126 -0.011938868 0.08624399 -0.021937931 -0.09543558 -0.028719088 0.15569156 0.09106777 -0.047425903 -0.07923237 0.12896295 -0.13718219 0.056375492 -0.08187104 -0.06391823 0.29410863 0.11189402 -0.0018975702 -0.15937105 -0.0588917 0.02090353 -0.045098204 0.041869625 0.112075865 0.1341919 -0.036712337 0.21712516 -0.009320141 -0.022775186 -0.082045674 0.031047566 -0.07482943 0.15288375 0.036333438 0.13231702 0.07961289 -0.0238874 -0.121820286 -0.05295673 -0.19639015 0.01005905 0.03470471 -0.08653987 -0.010442794 -0.12780516 -0.041714106 0.008961058 0.071148165 -0.16294315 -0.14025508 0.057859033 -0.110722885 0.012881754 -0.08757751 0.10120914 -0.031517554 -0.09708311 0.020114314 -0.04189039 -0.045862705 -0.20595497 0.06727566 -0.060637932 0.099341504 0.077875264 -0.1316608 -0.18369849 0.016979877 0.060854953 0.017727751 -0.076171555 0.08158812 0.08150443 -0.005295041 -0.026263973 -0.080321446 0.09756265 -0.006387966 -0.19914082 0.077831656 0.021530448 0.041122865 -0.12695104 -0.016502125 0.0341581 -0.01253089 -0.07061672 -0.1748861 0.107478626 0.020290662 0.15007187 0.097995274 -0.02891563 -0.011657748 -0.01501844 0.029478256 0.09409479 0.13267377 -0.137299 -0.04561982 0.0898185 -0.14076222 -0.055866126 0.13201532 0.00262412 -0.09648911 -0.14457315 -0.113608964 -0.08123099
6269 0.056536544 -0.063693374 0.12524195 0.0062383125 0.04002282 0.0035112929 -0.1022807 -0.14142597 0.051970966 0.030726084 -0.022773834 0.04399039 0.032272715 0.079716176 -0.20827976 0.04388461 0.10020986 0.13449086 0.10332507 -0.02077182 -0.010561337 0.11934589 -0.02994427 -0.099099435 -0.00087108195 0.16789097 0.09969586 -0.054883067 -0.096697316 0.13947114 -0.15631956 0.08269654 -0.079115026 -0.068111315 0.31363413 0.1270006 0.0076563037 -0.17329654 -0.03776034 0.007022283 -0.045029514 0.041226715 0.110560656 0.13377886 -0.036366366 0.20756985 -0.01221539 -0.02801698 -0.06944847 0.04831113 -0.075735934 0.15965924 0.02928653 0.1216835 0.078697205 -0.00675543 -0.12554266 -0.05867272 -0.17620103 0.006182289 0.028421126 -0.08351246 -0.014602224 -0.12870184 -0.038793836 0.023929125 0.068929516 -0.14456707 -0.13810827 0.0651716 -0.10689593 0.02810617 -0.06611577 0.08155363 -0.03315492 -0.098399736 0.011183078 -0.049199067 -0.03968936 -0.18658707 0.07215287 -0.06619355 0.114667565 0.06705559 -0.12683505 -0.16955985 0.004594402 0.06491492 0.019167548 -0.070938 0.06977886 0.08029896 -0.004169096 -0.023085916 -0.059629343 0.11485775 -0.0021992635 -0.17554955 0.07680423 0.042693797 0.053766485 -0.10875555 -0.014448808 0.039640874 0.00358352 -0.06359552 -0.162313 0.09126771 0.0092586605 0.1351215 0.09815332 -0.03267201 -0.021337453 -0.023568612 0.02295462 0.07999639 0.14231235 -0.13422024 -0.045063984 0.06934966 -0.12402979 -0.0717133 0.12099014 -0.010603051 -0.08204133 -0.12049879 -0.11901484 -0.0813504
2820 0.08030366 -0.055861823 0.13635589 0.011945139 0.05447689 -0.0048058457 -0.1187971 -0.14930889 0.052391935 0.023934405 -0.03990656 0.056251537 0.03733391 0.0803948 -0.23375694 0.04909037 0.09464647 0.13216855 0.08718197 -0.02174228 -0.004706066 0.10436695 -0.039767973 -0.101598345 -0.011525728 0.16937812 0.11166847 -0.048658457 -0.099224314 0.13459128 -0.15654823 0.06897482 -0.08390957 -0.05550186 0.30312413 0.112673484 -0.01914542 -0.16530173 -0.043668207 0.0128925275 -0.051588982 0.05314579 0.11693441 0.13553497 -0.036942028 0.21732783 -0.0049993554 -0.024667844 -0.07546554 0.03967195 -0.06839025 0.1447784 0.039507683 0.12249733 0.08888916 -0.014407959 -0.12461584 -0.04465243 -0.18163504 -0.002222656 0.020740852 -0.0747298 -0.0048561073 -0.11514783 -0.040103666 0.008136956 0.06467204 -0.14146583 -0.12923956 0.05559999 -0.10379335 0.027004324 -0.08833688 0.09065035 -0.009984626 -0.08651244 0.008266849 -0.04819719 -0.04362522 -0.17415366 0.07299916 -0.06396206 0.084371045 0.061151903 -0.13394804 -0.15896034 0.0051201982 0.06297251 0.010900202 -0.068272755 0.06483808 0.07461243 0.00528556 -0.025670154 -0.06368798 0.100831814 -0.008397522 -0.16301338 0.07786043 0.025582533 0.05059924 -0.110485755 -0.009735693 0.036263417 0.00083378766 -0.07109334 -0.14563231 0.103564404 0.00944458 0.13470902 0.098046206 -0.03201006 -0.014575869 -0.01862898 0.023065858 0.098418586 0.10829461 -0.15232995 -0.053721674 0.06399245 -0.13085161 -0.06275838 0.12482028 -0.0049631493 -0.07543435 -0.14572182 -0.11021487 -0.069365874
9149 0.075330496 -0.06685557 0.125601 -0.009659485 0.05401431 -0.007281616 -0.10569003 -0.14321896 0.04373136 0.013017543 -0.034231164 0.065074295 0.041385695 0.077035464 -0.19588429 0.04714131 0.08910475 0.12965104 0.09044453 -0.022050448 -0.009943702 0.10192666 -0.03732472 -0.09660325 -0.008959428 0.17020614 0.10088279 -0.034841724 -0.09451066 0.13498612 -0.1542877 0.06571389 -0.07563518 -0.0795872 0.31405565 0.1216994 -0.006670532 -0.16519333 -0.02517544 0.002760624 -0.04248723 0.04727934 0.10329652 0.14382209 -0.034066826 0.214658 -0.007439107 -0.017679418 -0.08733418 0.02967204 -0.08208798 0.14409153 0.03247949 0.12541564 0.07785633 -0.005752969 -0.14248301 -0.04286026 -0.19229193 0.010934583 0.028169643 -0.09220067 -0.011384831 -0.12695736 -0.049069647 0.019130481 0.06236583 -0.12071928 -0.124777585 0.060785566 -0.11558879 0.027677119 -0.075248346 0.08668423 -0.027153187 -0.085771784 0.013628037 -0.06181362 -0.04081372 -0.17883006 0.06802266 -0.063026406 0.09981441 0.06695082 -0.110728614 -0.16436583 0.0054518166 0.048463054 0.009327211 -0.08961429 0.05510656 0.07673442 -0.006126506 -0.02152682 -0.067578234 0.1154852 -0.0025176115 -0.17528844 0.08082922 0.04972263 0.06496207 -0.10235144 -0.02293867 0.04615012 0.0062427516 -0.06321116 -0.16946524 0.11329192 0.008896089 0.13818295 0.08648769 -0.032755416 -0.018856507 -0.01635801 0.02886248 0.10295051 0.13198079 -0.15059836 -0.056868315 0.055638086 -0.14481123 -0.059406806 0.12423815 -0.012347635 -0.0888406 -0.13324453 -0.12116735 -0.07298257
7424 0.0639955 -0.05187009 0.11829558 -0.009004557 0.050278075 0.004249049 -0.10433982 -0.12589829 0.04577859 0.005537303 -0.031115973 0.05639962 0.027407223 0.07423344 -0.21129239 0.05029835 0.08159069 0.12860921 0.08133476 -0.014747248 -0.014232822 0.10102883 -0.027435988 -0.09764443 -0.0051788073 0.1856392 0.11456702 -0.057373058 -0.08985816 0.12581705 -0.15244119 0.075019136 -0.08394581 -0.06987721 0.33122736 0.12588057 -0.006963549 -0.17552179 -0.024350466 0.0001727908 -0.04539699 0.0556668 0.11007246 0.14840214 -0.04112636 0.21735616 -0.00010923188 -0.018782085 -0.0761508 0.03975591 -0.07329486 0.14727922 0.03337927 0.12240284 0.08617049 -0.0116287945 -0.13157485 -0.046720464 -0.17967421 0.0055218535 0.03309452 -0.06251872 -0.019428771 -0.123455845 -0.039278056 0.012313111 0.08674751 -0.13299282 -0.13639466 0.064280696 -0.11684968 0.02201359 -0.078185864 0.09465322 -0.028408753 -0.099034175 0.016001698 -0.054265536 -0.035512004 -0.17314136 0.06785681 -0.0585029 0.085826516 0.073380455 -0.12284113 -0.16415404 0.004824446 0.059028573 0.011974688 -0.0780316 0.0771518 0.07935118 -0.010005988 -0.016912103 -0.06814684 0.107918665 -0.0052487603 -0.16026923 0.073618434 0.04563943 0.053876996 -0.106222846 -0.0151399495 0.034661286 0.008215023 -0.0661847 -0.15452263 0.10485503 0.01664871 0.14039485 0.09071217 -0.043264892 -0.01006305 -0.014238893 0.018291067 0.091918655 0.12573461 -0.15540041 -0.06310557 0.063864954 -0.1282268 -0.06988644 0.13529658 0.0064677335 -0.08400221 -0.13871667 -0.11376374 -0.06741658
4873 0.081145965 -0.056876317 0.10545282 -0.008712182 0.052664924 0.010126299 -0.105668515 -0.11750332 0.04955658 0.003840315 -0.03824283 0.064737186 0.02870323 0.07516034 -0.2193582 0.054583553 0.08462406 0.12658145 0.07759378 -0.008229137 -0.005426401 0.09927956 -0.023750177 -0.103349544 -0.0067963316 0.1913311 0.10932108 -0.061508857 -0.09018657 0.14960007 -0.14769863 0.06676106 -0.07223539 -0.07020314 0.34573233 0.123376 0.009172743 -0.1754229 -0.018908802 0.0013963878 -0.059216917 0.05982916 0.09671001 0.1415958 -0.052966736 0.22458014 -0.0068100663 -0.02873077 -0.0703503 0.031931322 -0.07448039 0.14488602 0.026620906 0.12067592 0.09668288 -0.026301093 -0.1309584 -0.05427147 -0.16535242 0.008729036 0.02763376 -0.07292789 -0.026005529 -0.11666233 -0.028408114 0.019251844 0.0925113 -0.14571539 -0.12461471 0.05759618 -0.11045292 0.023880063 -0.06390226 0.09565461 -0.03558026 -0.09008817 0.015864946 -0.064059325 -0.036589745 -0.17584217 0.062225927 -0.069101565 0.08318832 0.07814435 -0.121080905 -0.1585999 0.014187036 0.05240523 0.017425675 -0.07472273 0.08156001 0.084188804 -0.007190401 -0.016192768 -0.067466944 0.0988164 -0.009962616 -0.1683551 0.068091676 0.04413308 0.0631695 -0.11132229 -0.012294164 0.045541685 -0.0017284108 -0.06928995 -0.14653021 0.1217544 0.024561781 0.1341764 0.08126114 -0.044767767 -0.008377392 -5.0517967e-05 0.019058218 0.09274832 0.12519358 -0.16496378 -0.07413508 0.059874333 -0.13213213 -0.065904975 0.14618416 0.0073523466 -0.092576616 -0.13992953 -0.12447882 -0.065796345
2392 0.07094015 -0.035771612 0.09491855 0.017978001 0.0330079 0.014488445 -0.10747598 -0.121703096 0.058373354 0.017027669 -0.033971246 0.045505237 0.04231144 0.07755807 -0.21234804 0.05016033 0.088994324 0.12239629 0.084038764 -0.010576637 -0.017515866 0.086299576 -0.019024717 -0.09388429 -0.027225817 0.173123 0.104185015 -0.057507604 -0.073608875 0.1476497 -0.13680825 0.046866015 -0.06842132 -0.05789947 0.30691406 0.10800471 0.015954973 -0.16224751 -0.050166097 0.015012484 -0.053236738 0.048366588 0.122315094 0.12899138 -0.051206633 0.2214031 -0.007615571 -0.03192394 -0.08055659 0.03231604 -0.051503357 0.14626364 0.033065792 0.12341927 0.07285222 -0.02082913 -0.120850906 -0.044671573 -0.16285715 0.028966859 0.040218648 -0.08450164 -0.0152125005 -0.11309383 -0.03606976 0.0058484753 0.07766596 -0.16366486 -0.13508563 0.046248935 -0.11095477 0.010781207 -0.08554587 0.10383897 -0.030901466 -0.087911226 0.015811684 -0.04423407 -0.03908205 -0.18960093 0.063711755 -0.06148783 0.09169253 0.081020266 -0.12462768 -0.17106435 0.0080079045 0.054305047 0.013259599 -0.081474505 0.07441203 0.07609063 0.00014414106 -0.020604828 -0.08434251 0.10228413 -0.015379047 -0.19222163 0.070555374 0.043531913 0.05432761 -0.11890043 -0.008714012 0.02086903 -0.011851723 -0.07309213 -0.16309564 0.118019834 0.024891399 0.13961306 0.0907277 -0.03460455 -0.023179453 -0.010324326 0.03443303 0.07965172 0.12305498 -0.16357242 -0.060070198 0.07526 -0.15002038 -0.06497256 0.1495016 0.023390235 -0.09577286 -0.15849906 -0.09264435 -0.08032012
158 0.05329896 -0.045582194 0.10067642 0.011497554 0.040303096 0.01941033 -0.112731546 -0.13566756 0.06299125 0.01872482 -0.03432614 0.043709163 0.034864575 0.07149364 -0.20982614 0.05555009 0.08974381 0.1261416 0.08696824 -0.015846167 -0.015055278 0.09760974 -0.026760165 -0.10169439 -0.012157778 0.16002601 0.09700305 -0.033186283 -0.077139534 0.14418104 -0.13882285 0.03795182 -0.06986778 -0.059106495 0.30011472 0.11782807 0.010953201 -0.16091569 -0.03818166 0.014581099 -0.055784453 0.037938736 0.120519236 0.12641898 -0.05126306 0.22563198 -0.011592788 -0.02698845 -0.07804005 0.034381468 -0.067776114 0.15816088 0.028771741 0.12310008 0.078454025 -0.025741957 -0.11677901 -0.049564842 -0.16708104 0.020507209 0.030940963 -0.093217865 -0.012110226 -0.11932733 -0.051713705 0.0028057653 0.08437244 -0.17004691 -0.12873997 0.059017252 -0.121167995 0.0129809575 -0.08537502 0.097305246 -0.02948332 -0.09154377 0.018820416 -0.0522733 -0.03314485 -0.19418293 0.06576867 -0.06013286 0.10925402 0.07629808 -0.12735315 -0.17167021 0.009628842 0.06063847 0.012194567 -0.08128979 0.06752889 0.08408549 0.0020665657 -0.01994617 -0.08874762 0.09401826 -0.009523534 -0.17897682 0.077420816 0.034591552 0.060555335 -0.11111489 -0.00993759 0.023863025 0.0015218407 -0.06952901 -0.16717952 0.10266091 0.023787424 0.14212452 0.098340645 -0.047349907 -0.0042722775 -0.010155629 0.025510686 0.082889274 0.119182125 -0.14246222 -0.058647268 0.060810946 -0.15124153 -0.052186266 0.1394815 0.012557824 -0.08914031 -0.1480191 -0.10837906 -0.078526065
7508 0.07864547 -0.066425025 0.13462949 0.011041365 0.040151183 0.0032238923 -0.100386865 -0.13445956 0.05337015 0.013823723 -0.03628386 0.06551751 0.02989954 0.08310185 -0.23862672 0.05880543 0.09667959 0.1403226 0.08963738 -0.007009654 -0.0018419855 0.09768444 -0.03806777 -0.111927144 -0.008895682 0.19860828 0.100698575 -0.06088718 -0.08560603 0.14212005 -0.15565792 0.08144154 -0.07481467 -0.06721717 0.3258577 0.12120818 -0.009623527 -0.16905005 -0.028275566 0.00047307357 -0.042371675 0.05769876 0.10182835 0.136874 -0.045658372 0.21943204 0.00036032088 -0.027142197 -0.080301724 0.035335295 -0.08110833 0.14274113 0.030849693 0.12363539 0.089613624 -0.01135819 -0.12943877 -0.05924208 -0.16501878 0.016642077 0.028601013 -0.08095024 -0.021396914 -0.11207959 -0.032222256 0.005747775 0.07869848 -0.13950527 -0.1286049 0.05629714 -0.1106102 0.030787839 -0.068014726 0.096653394 -0.022751167 -0.09236432 0.009297129 -0.040695686 -0.05081746 -0.17672504 0.06865785 -0.0531049 0.08546585 0.085905 -0.11304994 -0.17587143 0.016320093 0.05459946 0.006232678 -0.07469951 0.07207865 0.06263675 -0.00043481225 -0.030167393 -0.068482146 0.09626908 -0.013624005 -0.16219817 0.07410521 0.038368102 0.053755924 -0.11250459 -0.016285669 0.0480247 -0.008209126 -0.06753783 -0.15790197 0.111075036 0.010670999 0.12857395 0.08766721 -0.038610663 -0.010152299 -0.0016903699 0.014059158 0.09687377 0.11732076 -0.14039525 -0.044069923 0.060174674 -0.1326907 -0.0678518 0.1215979 -0.0026553725 -0.08645122 -0.13376741 -0.10463115 -0.071161434
9304 0.0698611 -0.05266578 0.11137442 -0.017561115 0.040861115 0.0004302882 -0.1065891 -0.11152661 0.048497222 0.013768653 -0.032510396 0.05557965 0.020967145 0.06311573 -0.18811847 0.034314208 0.083862826 0.12206561 0.07289189 -0.016549297 -0.008379994 0.10699526 -0.041307874 -0.097728126 -0.010612035 0.16930966 0.10366305 -0.038989834 -0.101885505 0.10901208 -0.1476544 0.0772481 -0.08983177 -0.073408276 0.34350383 0.1299523 0.005359117 -0.17874244 -0.017102027 0.0013570079 -0.051297434 0.04794997 0.10673981 0.1402403 -0.036310863 0.20854492 -0.013143867 -0.025330001 -0.06774046 0.034127776 -0.08945704 0.15717694 0.03819236 0.114983015 0.090186 -0.028270146 -0.13127533 -0.055923883 -0.18992116 0.01740528 0.020906057 -0.07527946 -0.017176345 -0.12684077 -0.034893252 0.011282151 0.07407625 -0.14914596 -0.13208508 0.08015484 -0.12071276 0.034018066 -0.088672444 0.08800551 -0.013462976 -0.097128965 0.010705256 -0.06688425 -0.05213988 -0.16875185 0.074496105 -0.06975627 0.10513255 0.073253036 -0.12150974 -0.1795992 0.008432237 0.07251183 0.02067888 -0.07619697 0.061114125 0.082902715 -0.00804922 -0.017973041 -0.06202836 0.115969226 -0.0048643895 -0.18050139 0.080106005 0.043728862 0.053200334 -0.11451278 -0.014543869 0.05787601 0.014283704 -0.05953208 -0.16814588 0.10544279 0.010247141 0.14369719 0.094651684 -0.054046243 -0.021953514 -0.011396966 0.027177991 0.108833596 0.13687913 -0.1554168 -0.057480603 0.050226 -0.13960302 -0.08179338 0.14135322 -0.013037566 -0.08768158 -0.14260598 -0.12938663 -0.07875266
7760 0.06390588 -0.0608047 0.13090561 0.011607639 0.053388905 0.0037180171 -0.10237716 -0.15135922 0.052383915 0.025219241 -0.035010755 0.059503302 0.04362998 0.07849047 -0.2231366 0.053444486 0.10321434 0.14325549 0.095718324 -0.00980649 -0.013877516 0.1134754 -0.043455817 -0.10916773 -0.012448253 0.18490091 0.09800726 -0.051795438 -0.10375568 0.14742985 -0.15600286 0.072590366 -0.07577344 -0.05731709 0.28110355 0.10115835 -0.0070540537 -0.14814799 -0.034994315 0.004539918 -0.036813274 0.03265888 0.11314804 0.12868658 -0.035547074 0.21515402 -0.012535408 -0.022482937 -0.06749937 0.027060205 -0.08000234 0.14774933 0.038587168 0.113958515 0.08455484 -0.013175943 -0.117909536 -0.056627568 -0.17324778 0.016311102 0.035655778 -0.09142566 -0.010545278 -0.11968025 -0.038677868 -8.708304e-05 0.061737698 -0.14624353 -0.1370817 0.058548108 -0.104891 0.017802924 -0.075312786 0.0918783 -0.0130324485 -0.09337019 0.015754653 -0.04465826 -0.048924144 -0.19609599 0.07313408 -0.06783338 0.09707122 0.07459146 -0.12016869 -0.18063994 0.0017539812 0.061873358 0.0138450535 -0.080451064 0.06643727 0.075260326 -0.0009334978 -0.034715727 -0.08005689 0.11051661 -0.0008177423 -0.17190002 0.082630284 0.032713123 0.058316156 -0.113420665 -0.0154992035 0.03644719 -0.0005481692 -0.0650914 -0.15375379 0.10608249 0.009734834 0.12651493 0.092827804 -0.04071099 -0.008563758 -0.019419568 0.022513393 0.08858936 0.1169046 -0.14117177 -0.055188153 0.07413833 -0.14213325 -0.04515147 0.13366391 -0.0016908849 -0.07921857 -0.13689938 -0.107429616 -0.07435869
9571 0.06588904 -0.06553308 0.12911463 -0.006318977 0.050060842 -0.00773969 -0.11617055 -0.1571988 0.070956394 0.01329668 -0.045129955 0.05287515 0.038838148 0.086360425 -0.22876751 0.059557978 0.10226754 0.14369018 0.090407036 -0.036499802 -0.010902107 0.1315244 -0.04368316 -0.12258291 -0.0022534123 0.18995287 0.10955907 -0.05097828 -0.1140688 0.14359507 -0.16657244 0.07473846 -0.091006696 -0.061965603 0.3182579 0.12368837 0.00075458136 -0.17892721 -0.030027928 0.0024831067 -0.04792673 0.04838034 0.10055974 0.13574652 -0.042310275 0.20782201 -0.004051566 -0.024139544 -0.058709603 0.049118735 -0.07504406 0.14705135 0.01600316 0.11199368 0.07864578 -0.020791052 -0.12654091 -0.049462102 -0.16162063 0.0015929822 0.029356398 -0.059678555 -0.013637474 -0.11051822 -0.024324661 0.0236698 0.07383192 -0.12716924 -0.13220622 0.067325965 -0.10219662 0.033256833 -0.08064588 0.08184979 -0.023366809 -0.092609115 0.02073376 -0.049584296 -0.030710248 -0.16619392 0.064262934 -0.0611429 0.09320166 0.06128409 -0.11416483 -0.15770744 0.010168933 0.061170697 0.017684592 -0.06189903 0.070802934 0.075691074 -0.0024452899 -0.008454057 -0.06408513 0.11023821 0.0014900237 -0.1637124 0.07448769 0.035086866 0.05376989 -0.08463629 -0.00942553 0.020848023 0.0024782126 -0.06809386 -0.15889739 0.08788731 0.01955453 0.13462138 0.097677894 -0.034814265 -0.015791943 -0.010823246 0.029117757 0.09453059 0.11930989 -0.14017114 -0.0527689 0.056914695 -0.1393732 -0.060772687 0.12932809 -0.012113556 -0.07154254 -0.1408742 -0.11277122 -0.06965772
2220 0.07114718 -0.061923094 0.12550794 0.00084716507 0.041703504 0.006613387 -0.11732635 -0.1410348 0.060532678 0.023585128 -0.041959547 0.053065013 0.041076805 0.07818709 -0.21259873 0.041318733 0.08778155 0.13401899 0.09036231 -0.019767657 -0.0058581717 0.09619327 -0.02512238 -0.104303874 -0.012254017 0.16871564 0.11028884 -0.04156412 -0.09846166 0.13341574 -0.15255885 0.057546705 -0.07560803 -0.061536405 0.30968562 0.11801736 -0.0013928259 -0.16915609 -0.03321134 0.010542434 -0.05833787 0.033287365 0.10901191 0.13472109 -0.052175615 0.21351093 -0.014762419 -0.024668772 -0.06955479 0.026081149 -0.06408935 0.15201381 0.033895675 0.12327516 0.07560031 -0.010189094 -0.11766131 -0.041190617 -0.17660159 0.013225836 0.025193818 -0.07264162 -0.011335164 -0.12166229 -0.054605696 0.008676294 0.06617034 -0.14386433 -0.1262927 0.07795027 -0.11853094 0.026983405 -0.07387468 0.08104581 -0.032888286 -0.09174659 0.015075831 -0.040542185 -0.049576983 -0.18022935 0.071827985 -0.053504042 0.09707234 0.07150596 -0.120470144 -0.17450377 0.011261205 0.057037536 0.018940061 -0.07819664 0.06875803 0.06814944 -0.001445047 -0.012749351 -0.079089046 0.113202296 -0.0018417154 -0.17825922 0.08252437 0.040226642 0.045912255 -0.112975486 -0.011599224 0.032832187 -0.00065679103 -0.06552353 -0.16627946 0.104951456 0.022946142 0.13611296 0.09071846 -0.04377732 -0.008856189 -0.008507074 0.029063355 0.092536956 0.12687276 -0.14158995 -0.056511115 0.06569828 -0.13219082 -0.05056398 0.11819221 -0.00073395926 -0.08339311 -0.1378686 -0.09539108 -0.071853526
7481 0.08657556 -0.062459715 0.12622249 0.009378284 0.0507426 -0.0061367797 -0.1093576 -0.15414013 0.05792968 0.013175379 -0.033688754 0.06051561 0.03110075 0.08048174 -0.21625334 0.058416635 0.09909528 0.14059843 0.09523553 -0.01743784 -0.013855572 0.11505967 -0.040474027 -0.106138684 -0.007863577 0.19508083 0.12134664 -0.062761076 -0.104114555 0.13363631 -0.16147141 0.074068725 -0.077674314 -0.06416904 0.3221896 0.11067495 -0.010811997 -0.18360044 -0.046979316 0.011018211 -0.05156319 0.054193176 0.09301492 0.14040148 -0.049214758 0.20795907 -0.0075493394 -0.029173141 -0.07368768 0.024534842 -0.072919525 0.1364748 0.029841261 0.11872906 0.087238654 -0.022302147 -0.12527205 -0.05034129 -0.16657132 0.004206882 0.023784235 -0.07014092 -0.010696311 -0.12190216 -0.030792953 0.0029058228 0.06759487 -0.13599771 -0.12855756 0.06455999 -0.11148968 0.019956069 -0.06833649 0.087654784 -0.02945758 -0.086865425 0.018654391 -0.0468141 -0.041040212 -0.17127627 0.07759265 -0.054609764 0.09099151 0.06861169 -0.11562094 -0.15493704 0.013860596 0.05381863 0.010965037 -0.07216724 0.06823497 0.073093064 0.0037286351 -0.014980674 -0.064417735 0.0962092 -0.014060863 -0.17588936 0.07097848 0.022708204 0.047719557 -0.107009605 -0.013982294 0.032207374 -0.011360741 -0.07888458 -0.15770437 0.10294089 0.019011851 0.14294715 0.09065937 -0.039419696 -0.011533145 -0.004163143 0.02069384 0.08831793 0.12850763 -0.14770111 -0.054811753 0.06132785 -0.13950449 -0.0548633 0.13394272 0.0031893796 -0.08480434 -0.13737454 -0.12966046 -0.074162394
7719 0.05884025 -0.04447011 0.110972874 0.0014142145 0.03968702 -0.0018784554 -0.09590261 -0.11430395 0.05597383 0.023154607 -0.037673686 0.031861857 0.033033714 0.078249514 -0.2114931 0.047669254 0.09129461 0.1299669 0.07849633 -0.029150145 -0.00844893 0.10544528 -0.016766412 -0.095182605 -0.012030437 0.15581502 0.11147401 -0.04033663 -0.07988148 0.121444486 -0.14190006 0.06374106 -0.06995711 -0.07033223 0.30188054 0.107447125 -0.0003456559 -0.17382753 -0.03950869 0.019687746 -0.058203965 0.043856144 0.12721042 0.13796726 -0.04632019 0.21930139 -0.016187146 -0.02566703 -0.077461146 0.036985394 -0.0750066 0.16359702 0.034503717 0.13401984 0.08686905 -0.021858003 -0.14141075 -0.04903201 -0.18773979 0.007542116 0.031201908 -0.09602313 -0.026006332 -0.13118754 -0.045724113 0.017244885 0.08139541 -0.15578613 -0.13405463 0.060544822 -0.11601666 0.022116289 -0.09251904 0.08154005 -0.025348881 -0.08853124 0.02011043 -0.03039068 -0.028119866 -0.18257067 0.07253231 -0.05739733 0.09367994 0.066483535 -0.117215864 -0.17465909 0.009480067 0.06727699 0.013549725 -0.06509409 0.06922191 0.066164576 0.008531268 -0.016015304 -0.083677426 0.10485971 -0.012300934 -0.17519753 0.080693 0.0178406 0.039018966 -0.111233935 -0.015658563 0.03644018 -0.01352011 -0.06959083 -0.17974909 0.103594296 0.016118446 0.1387141 0.09063801 -0.031637624 -0.011873398 -0.0049486095 0.008726447 0.0967815 0.11839907 -0.13326642 -0.05910733 0.07839963 -0.13348664 -0.05640435 0.13828103 0.0029680238 -0.08068272 -0.13818885 -0.10582761 -0.08277278
6117 0.079140745 -0.05356066 0.11699287 0.024796328 0.04409175 0.020061197 -0.12229452 -0.16036086 0.05773182 0.023332238 -0.026223963 0.05089719 0.041870542 0.07665533 -0.21637718 0.050056435 0.080720305 0.12514494 0.08880524 -0.015507315 -0.016422302 0.10778203 -0.032035857 -0.10535144 -0.0068943542 0.1820692 0.10127457 -0.051900677 -0.09354114 0.14935128 -0.151858 0.06027513 -0.05877699 -0.06306072 0.30117315 0.112704106 0.0017381584 -0.14950001 -0.047368195 -0.0017329792 -0.048532877 0.049379177 0.10140714 0.1252423 -0.051930968 0.21550861 -0.011150708 -0.01651527 -0.08246897 0.016540982 -0.05593227 0.14180888 0.025669178 0.110434614 0.093514375 -0.017113 -0.117609754 -0.04669458 -0.16603245 0.00711604 0.026893 -0.069752656 -0.010997465 -0.12449427 -0.032942966 0.000119504984 0.07662461 -0.15494823 -0.12806705 0.061316248 -0.1095836 0.009575809 -0.081152044 0.0930536 -0.02991476 -0.086757235 0.020745195 -0.051716037 -0.034588285 -0.19214527 0.072006404 -0.05183813 0.09619204 0.082372494 -0.13178119 -0.16178253 0.016921105 0.050029565 0.017568557 -0.072735526 0.07137875 0.072604634 0.000663474 -0.01845236 -0.07932588 0.10236884 -0.02023474 -0.17932905 0.07612249 0.03220495 0.053966906 -0.12255462 -0.0068018087 0.04593535 -0.0010217155 -0.07058161 -0.16100934 0.10874761 0.023078531 0.14982858 0.09826686 -0.043091554 -0.009198654 -0.021160612 0.022091413 0.08675562 0.111487284 -0.15537144 -0.061894637 0.07422615 -0.14488868 -0.05430136 0.1335486 0.004462422 -0.08972527 -0.13590705 -0.111518435 -0.0772869
2075 0.066456445 -0.050234664 0.11811476 0.026315179 0.047503725 0.00047036333 -0.10152339 -0.1431305 0.043659225 0.027491122 -0.032206923 0.05179125 0.044329148 0.083780035 -0.20807679 0.044710267 0.09574938 0.13353159 0.096107684 -0.015790977 -0.005980772 0.087474436 -0.03097768 -0.09289126 -0.030633047 0.16755481 0.10647123 -0.04313732 -0.09634132 0.13196905 -0.15431552 0.05951801 -0.08263971 -0.0591895 0.31024525 0.10699191 -0.008166183 -0.16157919 -0.06392383 0.021042561 -0.0642862 0.04324576 0.11141096 0.15227337 -0.039590858 0.20492025 -0.021983089 -0.015577077 -0.08577503 0.019835569 -0.07055284 0.1565981 0.049655776 0.1239985 0.08138319 -0.017461581 -0.12962867 -0.047434386 -0.19251637 0.0034972152 0.020374995 -0.10978022 -0.0013454313 -0.12539734 -0.049429543 -0.00078230136 0.04060867 -0.15075228 -0.12792534 0.065499 -0.11044769 0.00981643 -0.08360975 0.07845954 -0.024001146 -0.070535295 0.01582258 -0.04119333 -0.044490326 -0.18610655 0.077093914 -0.0595066 0.100226134 0.07460875 -0.115246244 -0.16950183 0.01111808 0.056194797 0.010450678 -0.07665123 0.06007918 0.0801622 0.0045116055 -0.020317102 -0.08661323 0.10152237 -0.010367726 -0.19350985 0.07383042 0.020712204 0.03818302 -0.11803973 -0.015986461 0.034110054 -0.01859249 -0.068903945 -0.17591462 0.101147264 0.017315796 0.1617758 0.094545245 -0.02434757 -0.024394812 -0.011152544 0.017620564 0.085050635 0.12564838 -0.14030641 -0.051673997 0.0652757 -0.15028134 -0.0356422 0.1236309 0.011793693 -0.084271826 -0.14270121 -0.09445061 -0.086386725
7816 0.08365244 -0.050076652 0.10595398 0.0046000592 0.043880347 0.0062031997 -0.10581632 -0.12783478 0.060120367 0.007666353 -0.031234732 0.057593703 0.035874397 0.083004214 -0.21198359 0.051494688 0.082297094 0.13345012 0.08554641 -0.016689029 -0.008009933 0.09800126 -0.0392994 -0.09453005 -0.015133226 0.19342923 0.1084223 -0.062458713 -0.08495157 0.13371857 -0.15346496 0.06841643 -0.07316363 -0.06714623 0.31819433 0.11326821 -0.0062731267 -0.1582728 -0.027828462 0.0022933215 -0.052356582 0.0597487 0.108031936 0.13457024 -0.05532607 0.22148688 0.005120497 -0.034527548 -0.080867216 0.023635 -0.061365955 0.14320904 0.034671903 0.11886516 0.09496242 -0.027491646 -0.12521628 -0.0484981 -0.17307357 0.0109778745 0.029029405 -0.07029197 -0.009134836 -0.11552478 -0.03627729 0.01377916 0.071576975 -0.13733906 -0.11852556 0.049590908 -0.10771761 0.026560446 -0.07693922 0.096096754 -0.017424928 -0.08440205 0.009551121 -0.049690258 -0.03491123 -0.16921668 0.066504605 -0.054652024 0.07902934 0.084828466 -0.11557957 -0.15185697 0.01132986 0.06463707 0.0041343593 -0.0861317 0.077964514 0.07991273 0.0076837875 -0.01343381 -0.06515107 0.10226792 -0.010408008 -0.1726275 0.07193041 0.035598315 0.045616582 -0.1176456 -0.020775221 0.043376014 -0.007276602 -0.073200814 -0.15579982 0.11231868 0.019889446 0.143237 0.087482244 -0.029079212 -0.013443106 0.0017531671 0.020845698 0.10258605 0.11767034 -0.15745951 -0.05667725 0.06789288 -0.1421117 -0.056776937 0.14102077 0.0122109 -0.08868614 -0.14694788 -0.12788248 -0.073788114
2037 0.06728699 -0.050628442 0.1264721 0.038594894 0.04004535 0.007824715 -0.117824465 -0.14445603 0.06263456 0.03575007 -0.035259485 0.050615817 0.052753292 0.10136417 -0.24660045 0.069873266 0.103946775 0.1484913 0.0958737 -0.020343797 -0.008268988 0.11030097 -0.011664429 -0.11739759 -0.015448415 0.18927108 0.10223616 -0.059130438 -0.08713624 0.16630554 -0.16361971 0.060881205 -0.05872429 -0.063636854 0.2947015 0.10134826 0.010566794 -0.14388637 -0.06092155 0.029445061 -0.05190782 0.041710492 0.12162749 0.13284452 -0.049257547 0.21857865 -0.018147465 -0.031875864 -0.088781774 0.026256623 -0.07336097 0.15712185 0.029758386 0.122550495 0.08804328 -0.012992245 -0.11824393 -0.050995816 -0.18517555 0.016355403 0.020534264 -0.091009 -0.018384026 -0.1030004 -0.037972335 0.0046125557 0.06445948 -0.15462129 -0.11980542 0.0417415 -0.09719353 -0.002059004 -0.070938125 0.08833208 -0.03810361 -0.08573202 0.016337385 -0.02450245 -0.047016397 -0.18642612 0.07356595 -0.055767022 0.10253152 0.06836344 -0.10731417 -0.17832138 0.012178466 0.06567536 0.01921993 -0.06742926 0.05941712 0.07219622 0.0038303758 -0.020950949 -0.09018314 0.09307758 -0.01642075 -0.1724865 0.06732874 0.0198488 0.035316065 -0.10839366 -0.014836644 0.0147071825 -0.009662517 -0.06942609 -0.16551541 0.0915502 0.015117966 0.12684488 0.09535723 -0.026328115 -0.015291165 -0.01656458 0.0057443213 0.07110005 0.11320058 -0.12969281 -0.054773565 0.0765497 -0.13559768 -0.042103544 0.12011564 0.01389635 -0.08735327 -0.13208114 -0.07403086 -0.09279885
9112 0.07943233 -0.053524118 0.11612354 -0.004713373 0.049994513 0.001775403 -0.12579001 -0.13913396 0.050118856 0.021522967 -0.029298529 0.054397088 0.02359377 0.084500365 -0.2165368 0.052806262 0.086112894 0.1379972 0.0932131 -0.022548195 -0.02044422 0.11165792 -0.025024708 -0.09340578 -0.012053427 0.18932493 0.11684951 -0.05532683 -0.08919722 0.13610075 -0.15810353 0.0727628 -0.07659893 -0.06485563 0.31335917 0.12389848 -0.009500513 -0.18035454 -0.037210632 0.005204924 -0.050963603 0.054402795 0.1157817 0.14883122 -0.040113453 0.21033174 -0.0106441025 -0.019518912 -0.07710184 0.030842109 -0.0692809 0.15793753 0.024482034 0.122717164 0.080240406 -0.018582564 -0.12722191 -0.050269764 -0.16369718 0.0054707257 0.03150618 -0.08143001 -0.025937323 -0.13580734 -0.042529225 0.008532039 0.077691264 -0.14324832 -0.14428765 0.069360174 -0.113208935 0.021477418 -0.081681155 0.08733373 -0.026211977 -0.089666456 0.02075347 -0.042484064 -0.035614684 -0.16756967 0.077429116 -0.055367112 0.094085366 0.07492779 -0.11090433 -0.16208927 0.01468044 0.059939336 0.018393502 -0.076515235 0.07531625 0.07411648 0.0023500286 -0.022279516 -0.06531354 0.09520752 -0.0065539656 -0.16038351 0.06981702 0.034936767 0.057411786 -0.09835009 -0.014265261 0.027142935 -0.0045017228 -0.059328932 -0.15859944 0.10578038 0.015353565 0.13788936 0.0881137 -0.028443255 -0.01109593 -0.012581855 0.022954702 0.08622601 0.12574139 -0.14430931 -0.0638504 0.06847054 -0.12878174 -0.056176722 0.125927 -0.0041439314 -0.08588204 -0.13526644 -0.10241745 -0.07230316
9620 0.07076013 -0.053347707 0.12100425 0.011646744 0.04103987 0.002385832 -0.090485305 -0.12507865 0.03788877 0.019209562 -0.023696478 0.04323911 0.04105271 0.07044342 -0.21595718 0.040624894 0.09080946 0.12740615 0.09252164 -0.03320777 -0.005891666 0.09881067 -0.029434983 -0.09996984 -0.0031848368 0.16685145 0.09811645 -0.06889842 -0.10295945 0.122777656 -0.14655767 0.06663581 -0.085707285 -0.06138353 0.307555 0.10358241 -0.003821303 -0.17206553 -0.027951771 0.007988267 -0.04184007 0.03595134 0.11280628 0.13312748 -0.025468942 0.20546849 -0.0099106 -0.026007934 -0.07588604 0.029741043 -0.07600133 0.15858933 0.038986616 0.13148828 0.0812431 -0.013481891 -0.13004594 -0.052892394 -0.18517227 -0.0020406528 0.022416865 -0.09312934 -0.0076579554 -0.12652323 -0.040589597 0.009248168 0.061592408 -0.1484139 -0.12168182 0.066950545 -0.11852908 0.009168088 -0.08580673 0.07577893 -0.033971116 -0.09149693 0.0047088354 -0.044898156 -0.05184288 -0.18902157 0.07590181 -0.05303854 0.103583395 0.07486905 -0.12057254 -0.17845675 0.01076061 0.06376593 0.014057216 -0.06939661 0.059308488 0.06788172 -0.0011501964 -0.029144622 -0.07817051 0.10954522 -0.011352691 -0.1654869 0.08317649 0.031946175 0.047457494 -0.10451187 -0.011294485 0.028706025 -0.009533234 -0.06207487 -0.16849709 0.10761415 0.0044656345 0.13847373 0.09343947 -0.03708428 -0.010507693 -0.009598898 0.011299755 0.09805162 0.13397442 -0.13665164 -0.042523157 0.07513584 -0.14214966 -0.0631246 0.1284672 0.0006590589 -0.08078798 -0.13285306 -0.11133943 -0.08297217
161 0.07446042 -0.036368225 0.109880775 0.03338963 0.03948346 0.013423158 -0.11199247 -0.13032968 0.0721992 0.036050994 -0.048912402 0.04488429 0.03443653 0.08313043 -0.2548228 0.0654466 0.10210967 0.14451145 0.09864087 -0.022512563 -0.0077452757 0.09607103 -0.013907016 -0.10946823 -0.022217594 0.19604006 0.10948944 -0.064998545 -0.07981623 0.16287634 -0.16277632 0.055637997 -0.06282978 -0.054821484 0.3047274 0.09762502 -0.0021827687 -0.15515494 -0.06983696 0.028572029 -0.06778277 0.038709447 0.119464025 0.13438132 -0.058507666 0.21554393 -0.03206138 -0.03065829 -0.0769582 0.029052453 -0.071445115 0.14752625 0.034583997 0.13200419 0.07955279 -0.034298755 -0.11986905 -0.044605173 -0.17017345 0.027939603 0.026288174 -0.08831121 -0.018437734 -0.114306524 -0.031466376 -0.005066488 0.07236722 -0.1804288 -0.1255771 0.050958924 -0.105600975 0.0071938825 -0.08048747 0.090286046 -0.024740677 -0.08373292 0.01841804 -0.011647949 -0.039735008 -0.17961255 0.068744615 -0.06613378 0.083148636 0.07106874 -0.11647554 -0.17297564 0.009035863 0.06410403 0.0067936047 -0.055378992 0.0799539 0.07192953 0.0064262305 -0.007711945 -0.081505924 0.078072146 -0.014535352 -0.19046588 0.07410571 0.0152878715 0.027380656 -0.118917525 -0.019926561 0.01908713 -0.029533926 -0.06792603 -0.15295328 0.11019215 0.035563838 0.1322958 0.08553861 -0.01874572 -0.01252013 -0.012615263 0.019562315 0.082621075 0.11172335 -0.1428311 -0.071739025 0.071295395 -0.13926658 -0.04510871 0.12949796 0.019534327 -0.09176414 -0.15121979 -0.084578775 -0.09087915
7346 0.07722334 -0.04985905 0.103585824 0.0054984316 0.048467167 0.007576189 -0.11550941 -0.13439673 0.055819567 0.011232402 -0.032412548 0.056771483 0.02997902 0.086845085 -0.21497892 0.05325731 0.081486374 0.12576124 0.08630405 -0.0043503297 -0.004365584 0.10508648 -0.02848904 -0.10228288 -0.0041608214 0.17653707 0.116112106 -0.053803958 -0.083297975 0.14814007 -0.1503538 0.06762769 -0.076618776 -0.05653229 0.32907426 0.11820702 0.0002797664 -0.16319457 -0.037986778 0.005118497 -0.049931448 0.058743946 0.109011516 0.14094402 -0.046280306 0.22226846 -0.0013730701 -0.023999583 -0.08981551 0.03830604 -0.064418875 0.14447042 0.028457962 0.1260634 0.089934826 -0.025697041 -0.12432984 -0.05474548 -0.18430245 0.0036856679 0.023420887 -0.066476986 -0.00996229 -0.11730075 -0.036163256 0.010773839 0.08527188 -0.14782223 -0.13168865 0.059260357 -0.11074783 0.026376514 -0.08312521 0.09573461 -0.027654257 -0.09025902 0.008643365 -0.05223935 -0.041336946 -0.18317686 0.06899441 -0.06800039 0.09791205 0.09379204 -0.12750527 -0.16165252 0.010224321 0.062063407 0.030415565 -0.07517738 0.07553929 0.08028875 0.0029085635 -0.016918872 -0.056825526 0.08689821 -0.010181626 -0.16874954 0.060057674 0.031826 0.050730757 -0.11273611 -0.01653967 0.045727212 0.011540589 -0.06431211 -0.14793092 0.10605087 0.010693406 0.13388377 0.08599364 -0.032760467 -0.012010816 -0.0073486296 0.020968761 0.090968 0.11547833 -0.15391551 -0.05255755 0.077579126 -0.13314937 -0.06572355 0.15016568 0.014279555 -0.090105236 -0.13971332 -0.1181357 -0.058547795
9446 0.08314525 -0.052705526 0.13356948 0.011170656 0.060559943 -0.0077047898 -0.09646329 -0.15597081 0.0560217 0.022960996 -0.034572497 0.050316233 0.05041715 0.092119925 -0.24094503 0.06270773 0.10120489 0.13877979 0.09493878 -0.016712395 -0.010770606 0.112654954 -0.03523268 -0.103346445 -0.004013126 0.18312849 0.10181614 -0.055056334 -0.09620056 0.13695058 -0.16363697 0.076994464 -0.08108295 -0.056581847 0.309645 0.11011598 -0.021007838 -0.16630788 -0.02998418 0.019937102 -0.05468922 0.047279514 0.103134036 0.13564773 -0.040091015 0.20575921 -0.024763942 -0.025556056 -0.07871486 0.031036168 -0.077791944 0.15050614 0.037139315 0.12291176 0.08795675 -0.014033407 -0.12199765 -0.048069194 -0.18427788 -0.0013050608 0.02052452 -0.080594204 -0.0037723845 -0.118348666 -0.04645285 -0.0026861532 0.05121931 -0.13536294 -0.1241807 0.05553999 -0.10492304 0.016798237 -0.07082878 0.07744241 -0.019708507 -0.089774966 0.015179911 -0.0407296 -0.04330088 -0.17515315 0.078593746 -0.059209608 0.089914635 0.07139023 -0.11711804 -0.15566811 0.003816774 0.048751906 0.0145684825 -0.05987767 0.051494904 0.081625536 -0.008107117 -0.016786436 -0.07074714 0.0878812 -0.0081958175 -0.17763034 0.08008233 0.0281611 0.051396675 -0.106749386 -0.009686113 0.041223444 -0.008978913 -0.07330602 -0.15643205 0.08970977 0.01644024 0.13197131 0.08761826 -0.034389626 -0.012924563 -0.023993121 0.0083471015 0.094444506 0.1315722 -0.13842332 -0.053400308 0.06655258 -0.14738733 -0.05761415 0.111830816 -0.0051315394 -0.0788871 -0.12725343 -0.11321147 -0.065767765
9679 0.07134015 -0.044133257 0.10229355 -0.007415629 0.044250496 -0.0062517645 -0.089517705 -0.10944917 0.055437952 0.024174234 -0.029408995 0.047348347 0.039388467 0.08735597 -0.21483572 0.046774957 0.07494427 0.12387871 0.087169394 -0.021230051 -0.0045629437 0.08925394 -0.02310302 -0.091397576 -0.0081928745 0.16617383 0.10243864 -0.059991688 -0.09170015 0.12665355 -0.1606057 0.0842034 -0.07881653 -0.06925212 0.32346836 0.12320038 -0.008601003 -0.18166566 -0.021662481 0.010018713 -0.05345246 0.03431357 0.11729625 0.13514994 -0.034357876 0.21326146 -0.016065294 -0.021772696 -0.08258455 0.037686255 -0.07375687 0.15179287 0.033967584 0.12937865 0.08974093 -0.01902507 -0.13261999 -0.05435743 -0.179553 0.0029427889 0.024188964 -0.09014213 -0.006055106 -0.13599533 -0.027845135 0.019879237 0.08327987 -0.15000513 -0.122643545 0.06750861 -0.12238359 0.034001183 -0.08468193 0.08845762 -0.031313974 -0.092318326 0.00105113 -0.03797204 -0.04444849 -0.17570265 0.07542187 -0.05963072 0.10926038 0.08153849 -0.121234424 -0.16548145 0.0027600713 0.06789704 0.019325951 -0.06852919 0.06350561 0.06795444 0.0003910089 -0.022874903 -0.07234032 0.11750635 -0.013450041 -0.1719343 0.07005273 0.045627825 0.04598085 -0.105326205 -0.014922514 0.041138764 0.0019384468 -0.061970983 -0.16228433 0.1076456 0.016875468 0.13541132 0.09499873 -0.03330415 -0.015496198 -0.007424109 0.023738837 0.09786305 0.12281472 -0.15012054 -0.05021388 0.069940135 -0.12960705 -0.06910148 0.13418774 -0.010195275 -0.086629994 -0.13160121 -0.110961944 -0.06776844
168 0.06536066 -0.059265003 0.10223767 0.021881998 0.048258148 0.0023405724 -0.1015134 -0.11201268 0.062406797 0.017767567 -0.036382847 0.04326557 0.03707346 0.08358488 -0.2024749 0.050642163 0.09559911 0.121832356 0.08415785 -0.011526926 -0.011058906 0.09896064 -0.022411026 -0.094645515 -0.021855958 0.15982035 0.0984558 -0.042701244 -0.092212774 0.13491535 -0.13580015 0.057412185 -0.08133614 -0.06432205 0.290848 0.108576216 0.007987264 -0.1557333 -0.04753279 0.016815677 -0.06316404 0.0395049 0.119441025 0.13584433 -0.045759644 0.22795491 -0.011616628 -0.02218976 -0.07704539 0.03256069 -0.07424643 0.15508105 0.04419647 0.12674068 0.074245475 -0.017198429 -0.12883562 -0.054999832 -0.18972977 0.0053049265 0.03394744 -0.09314352 -0.012474287 -0.12090118 -0.035701465 0.004997545 0.07367282 -0.1622317 -0.13540985 0.06858997 -0.122125186 0.01042091 -0.080515385 0.10418394 -0.023682833 -0.08850581 0.020580214 -0.030894602 -0.045719646 -0.19076754 0.07178449 -0.0597547 0.10442926 0.07963392 -0.11915634 -0.18978035 0.018081676 0.0624029 0.011444862 -0.067912295 0.07782609 0.07341547 0.012099996 -0.027453285 -0.09372717 0.10529338 -0.012170438 -0.17801555 0.08053836 0.030897439 0.047269855 -0.118849054 -0.011375902 0.025649536 -0.020231493 -0.071558535 -0.16473812 0.10301043 0.00948188 0.14142835 0.094203696 -0.026689496 -0.016653247 -0.014358979 0.029717801 0.086518355 0.1150376 -0.13069813 -0.05186011 0.08420641 -0.14561003 -0.051470723 0.14740558 0.012667063 -0.082160965 -0.14531903 -0.09574658 -0.090563364
333 0.07650692 -0.040924516 0.10587462 0.022324195 0.045243885 0.0057891845 -0.10554092 -0.1235902 0.0611897 0.009234684 -0.040390786 0.0653289 0.03539366 0.07575086 -0.218489 0.052897733 0.085651614 0.12841296 0.08544575 -0.0043510827 -0.010944888 0.098276936 -0.023061918 -0.092464775 -0.02045439 0.19325309 0.09836773 -0.06321944 -0.08351289 0.15953623 -0.1381555 0.063638955 -0.06503798 -0.058481112 0.3046593 0.11849097 0.007366028 -0.16550046 -0.04198164 0.004997003 -0.059269313 0.059100624 0.10571847 0.12513836 -0.061918437 0.22352861 0.0066442396 -0.03418361 -0.07940707 0.037625395 -0.06306414 0.1397118 0.019716688 0.12919669 0.08339695 -0.019168707 -0.13184105 -0.06347739 -0.16566114 0.01790153 0.029590035 -0.06646102 -0.019544322 -0.11429794 -0.014908133 0.0076595447 0.09030467 -0.1575559 -0.14183448 0.053776827 -0.110240355 0.019402433 -0.082782 0.107742205 -0.029585695 -0.09719652 0.016165381 -0.047798194 -0.036530733 -0.18226436 0.065933704 -0.0508149 0.0795008 0.0920107 -0.12013635 -0.16465463 0.008126947 0.06438803 0.019448487 -0.077834174 0.0851524 0.07713329 -0.010680246 -0.021043498 -0.08164491 0.10186283 -0.012483894 -0.17954177 0.07732233 0.036947798 0.047225237 -0.10507333 -0.0033475636 0.0254252 -0.0018575616 -0.06855523 -0.15589759 0.11042052 0.015410674 0.12910098 0.0872287 -0.0408901 0.0012383811 -0.010777325 0.023572002 0.09171445 0.11656935 -0.17274278 -0.06746299 0.07037221 -0.13274653 -0.067314945 0.14412326 0.010816788 -0.09133878 -0.14504401 -0.10168847 -0.06380286
2082 0.07569198 -0.04880734 0.12106181 0.03427485 0.048186745 0.0026635758 -0.118397936 -0.15237029 0.0579537 0.023328202 -0.03994609 0.054633416 0.0462158 0.0789086 -0.22875759 0.052245956 0.10606316 0.13503002 0.10391466 -0.016763248 -0.012470141 0.09284074 -0.030448541 -0.09890434 -0.018399507 0.1747186 0.109570324 -0.056514375 -0.08404024 0.1579008 -0.14891383 0.061183915 -0.0693063 -0.058048394 0.29188824 0.10706539 -0.009604687 -0.14546153 -0.059707485 0.023446409 -0.05457916 0.041573256 0.11575566 0.13126716 -0.053711608 0.22125912 -0.0084995 -0.021353228 -0.08229104 0.035354923 -0.06348602 0.15656288 0.03906625 0.12963554 0.08463047 -0.018763987 -0.13378918 -0.05098757 -0.18762082 0.020583313 0.030781277 -0.0904444 -0.0102475425 -0.11845071 -0.044729203 -0.009296164 0.06884473 -0.16200063 -0.12380787 0.0550727 -0.11050051 0.011938097 -0.0863914 0.093806304 -0.034644764 -0.0862853 0.018696561 -0.03966809 -0.050436787 -0.18298765 0.068963096 -0.05564824 0.09270398 0.07595617 -0.11950885 -0.18586805 0.003760336 0.05135803 0.009793584 -0.06264738 0.064803645 0.07780784 -0.0021141972 -0.015047423 -0.070287846 0.08915397 -0.017647859 -0.18291864 0.07380534 0.026681183 0.047046952 -0.11771784 -0.0046085464 0.02949481 -0.016143993 -0.05992891 -0.15628965 0.10073443 0.0142793665 0.13187818 0.08416728 -0.027630571 -0.02198416 -0.012774254 0.016186219 0.07740796 0.11429078 -0.14521454 -0.06047111 0.06476243 -0.14445359 -0.050248813 0.12449764 0.016603185 -0.08784011 -0.14254138 -0.0876997 -0.07959921
279 0.07581111 -0.039764214 0.09907922 0.0105017945 0.047541715 0.005121795 -0.102170154 -0.11178939 0.04634533 0.02542426 -0.039790127 0.052190788 0.043103125 0.07130262 -0.21784665 0.05586835 0.08827031 0.1289036 0.074768774 -0.0043496694 -0.0041238707 0.079441816 -0.024189645 -0.1019292 -0.02427515 0.16701962 0.098353826 -0.050426316 -0.0867312 0.13946396 -0.14700979 0.044248015 -0.084169455 -0.05072074 0.30210364 0.11443318 -0.0054100244 -0.16032782 -0.05838208 0.009082986 -0.06448798 0.052944276 0.12213905 0.14320639 -0.05026797 0.2298366 -0.012893582 -0.03170753 -0.09960874 0.04219366 -0.06050359 0.14434007 0.034091815 0.13739839 0.09100235 -0.029679457 -0.12971452 -0.054018673 -0.18027112 0.009522433 0.023706779 -0.09279218 -0.004114509 -0.10865332 -0.03237058 -0.008023475 0.06656175 -0.15838857 -0.1260254 0.047916155 -0.10935679 0.015258769 -0.096510924 0.08860884 -0.024499003 -0.078905314 0.018570459 -0.039346654 -0.039764274 -0.19536914 0.070739575 -0.06143238 0.08427618 0.083221674 -0.115746945 -0.16308177 0.003814635 0.054152533 0.012135943 -0.08094277 0.07034427 0.077056795 0.010290023 -0.011414188 -0.090380244 0.10271753 -0.0040342878 -0.18410875 0.07017888 0.024394402 0.05024334 -0.11415379 -0.020101005 0.03311881 -0.0074156937 -0.08640584 -0.16269387 0.116539344 0.02151782 0.14350098 0.082884215 -0.038856395 -0.006219332 -0.009840475 0.02618542 0.09321279 0.12344582 -0.15881845 -0.057710852 0.073265925 -0.16437104 -0.040486924 0.1450736 0.015441181 -0.09120842 -0.15181284 -0.10408355 -0.083744854
85 0.07013422 -0.046519443 0.123160794 0.023906073 0.05619565 0.015933849 -0.10720011 -0.14299111 0.070789486 0.031217556 -0.054819454 0.04761476 0.047469813 0.09239798 -0.24432506 0.07046291 0.11282754 0.13720022 0.08617406 -0.01598911 -0.015003575 0.112632975 -0.013642063 -0.10788096 -0.0137531245 0.168457 0.09988543 -0.043181192 -0.0768309 0.15564246 -0.14069323 0.06302119 -0.069772206 -0.064275764 0.30398658 0.10859433 -0.0018020808 -0.16141556 -0.05911454 0.016073782 -0.056736227 0.038016398 0.11689555 0.13087426 -0.04081683 0.21970928 -0.017701242 -0.027049705 -0.080284074 0.042681105 -0.06589725 0.15497869 0.030943897 0.1323551 0.07080425 -0.03103019 -0.12721683 -0.042589854 -0.1702482 0.014066526 0.032186095 -0.08676827 -0.0059741875 -0.1253689 -0.023043808 0.005964852 0.07409179 -0.17048141 -0.12713243 0.047969177 -0.084886394 0.018210193 -0.070662744 0.08966702 -0.020477198 -0.095479004 0.017222403 -0.023013864 -0.04670415 -0.1908077 0.07404365 -0.060203727 0.09386752 0.07693972 -0.121886745 -0.17237373 0.0027784004 0.06287118 0.0027866885 -0.065197706 0.0644663 0.08438709 0.012469303 -0.01290241 -0.08423088 0.08786729 -0.011465685 -0.18736356 0.073026925 0.019904286 0.05090914 -0.11630513 -0.011774991 0.02218671 -0.019925145 -0.07197404 -0.14562167 0.098110326 0.03515682 0.13188143 0.08459529 -0.026073262 -0.014593555 -0.021705097 0.022687268 0.079198174 0.111097395 -0.1420812 -0.05880519 0.08061828 -0.13861571 -0.047994632 0.13059345 0.014780714 -0.07357565 -0.14684507 -0.092544824 -0.07667964
6249 0.07005764 -0.06019608 0.11973765 0.0060595237 0.053548843 -0.003646223 -0.113646165 -0.14279553 0.06240909 0.0072620297 -0.030704467 0.05431099 0.044122383 0.09612847 -0.22825423 0.047929026 0.09029738 0.13101777 0.087337196 -0.0098031005 -0.014227467 0.105558656 -0.025364041 -0.097868465 -0.012780769 0.18290155 0.113439314 -0.050476905 -0.10378637 0.14059837 -0.15122876 0.08109276 -0.075415805 -0.055706732 0.29720697 0.09834433 -0.0053060134 -0.14378385 -0.0247455 0.0047691697 -0.04620425 0.046841376 0.10028391 0.13276078 -0.04657805 0.20963462 -0.0017108284 -0.02690966 -0.08506395 0.03349557 -0.06958822 0.15611161 0.04721397 0.11556839 0.0857049 -0.010630562 -0.11962496 -0.04414673 -0.19651575 0.010401933 0.04226602 -0.090429 -0.012217289 -0.1151773 -0.04423906 -0.0070807803 0.06652522 -0.13937591 -0.13066597 0.059269343 -0.11110995 0.017280031 -0.07609834 0.09213776 -0.021809332 -0.092530765 0.01846798 -0.04284371 -0.048942074 -0.18998882 0.065072216 -0.069651484 0.09623095 0.08610755 -0.11216394 -0.16443515 0.006797934 0.0500055 0.0030177082 -0.07803579 0.0711018 0.08237099 -0.0059687346 -0.018548833 -0.06392961 0.10235597 -0.008895034 -0.16533166 0.08547185 0.027021198 0.04634231 -0.11809483 -0.028280634 0.044676635 -0.010049071 -0.07561812 -0.1695322 0.10089249 -0.0053975983 0.14215533 0.084857725 -0.02354373 -0.00972995 -0.015172701 0.024704907 0.10597429 0.12771302 -0.14507769 -0.053995647 0.07049468 -0.14335461 -0.059167787 0.13883285 0.0019239828 -0.08329983 -0.14076643 -0.11795225 -0.07427118
3491 0.081790596 -0.046340086 0.11824962 0.02109387 0.036936104 0.00090787606 -0.104390435 -0.14210537 0.05359822 0.019110274 -0.042202983 0.057012547 0.03795764 0.0761572 -0.2094827 0.062184222 0.096868396 0.12737146 0.09674039 -0.012412007 -0.011043615 0.10606003 -0.02687331 -0.110027455 -0.014494089 0.16987737 0.10443461 -0.05440206 -0.09037906 0.15511967 -0.15078168 0.06202407 -0.06578833 -0.05738609 0.31837496 0.10820461 -0.004804289 -0.15745898 -0.058539797 0.013535102 -0.05289088 0.05528857 0.120996274 0.14230843 -0.058613922 0.22353916 -0.023740498 -0.027902087 -0.08726007 0.033890944 -0.06862488 0.15417404 0.027097967 0.13176557 0.092588454 -0.029879326 -0.13011833 -0.052813735 -0.17849207 0.014406055 0.025315927 -0.082535475 -0.0051042098 -0.12074347 -0.02995459 0.01565914 0.07675123 -0.15017508 -0.12508875 0.04577571 -0.10922379 0.020187346 -0.07847347 0.098662816 -0.032708377 -0.08400002 0.010530592 -0.031976357 -0.042089764 -0.18215208 0.06667555 -0.07101388 0.08703677 0.06882245 -0.12387576 -0.17151888 0.0111815855 0.05524306 0.015426152 -0.060716048 0.07026756 0.07567851 0.0062733474 -0.01616492 -0.07537307 0.09260889 -0.018913053 -0.17402978 0.073855266 0.018175554 0.036407325 -0.117986456 -0.016827457 0.03793872 -0.010641236 -0.07524042 -0.14467727 0.10539652 0.02118801 0.1261234 0.08177981 -0.020565663 -0.017878179 -0.0066220043 0.016150482 0.07851437 0.11469891 -0.14912176 -0.06406238 0.06423585 -0.1274138 -0.04701377 0.13752985 0.014742575 -0.09027614 -0.14652722 -0.11023353 -0.08535217
